{"learner":{"attributes":{"scikit_learn":"{\"_estimator_type\": \"classifier\"}"},"feature_names":["customerId","creditLimit","transactionAmount","enteredCVV","cardLast4Digits","expirationDateKeyInMatch","hour","day","month","day_of_week","transaction_to_credit_ratio","credit_minus_available","time_since_account_open","time_since_last_address_change","transaction_amount_percentage","time_since_last_transaction","transaction_deviation","posEntryMode_5.0","posEntryMode_9.0","posEntryMode_80.0","posEntryMode_90.0","posEntryMode_nan","posConditionCode_8.0","posConditionCode_99.0","posConditionCode_nan","cardPresent_1"],"feature_types":["float","float","float","float","float","float","float","float","float","float","float","float","float","float","float","float","float","float","float","float","float","float","float","float","float","float"],"gradient_booster":{"model":{"gbtree_model_param":{"num_parallel_tree":"1","num_trees":"300"},"iteration_indptr":[0,1,2,3,4,5,6,7,8,9,10,11,12,13,14,15,16,17,18,19,20,21,22,23,24,25,26,27,28,29,30,31,32,33,34,35,36,37,38,39,40,41,42,43,44,45,46,47,48,49,50,51,52,53,54,55,56,57,58,59,60,61,62,63,64,65,66,67,68,69,70,71,72,73,74,75,76,77,78,79,80,81,82,83,84,85,86,87,88,89,90,91,92,93,94,95,96,97,98,99,100,101,102,103,104,105,106,107,108,109,110,111,112,113,114,115,116,117,118,119,120,121,122,123,124,125,126,127,128,129,130,131,132,133,134,135,136,137,138,139,140,141,142,143,144,145,146,147,148,149,150,151,152,153,154,155,156,157,158,159,160,161,162,163,164,165,166,167,168,169,170,171,172,173,174,175,176,177,178,179,180,181,182,183,184,185,186,187,188,189,190,191,192,193,194,195,196,197,198,199,200,201,202,203,204,205,206,207,208,209,210,211,212,213,214,215,216,217,218,219,220,221,222,223,224,225,226,227,228,229,230,231,232,233,234,235,236,237,238,239,240,241,242,243,244,245,246,247,248,249,250,251,252,253,254,255,256,257,258,259,260,261,262,263,264,265,266,267,268,269,270,271,272,273,274,275,276,277,278,279,280,281,282,283,284,285,286,287,288,289,290,291,292,293,294,295,296,297,298,299,300],"tree_info":[0,0,0,0,0,0,0,0,0,0,0,0,0,0,0,0,0,0,0,0,0,0,0,0,0,0,0,0,0,0,0,0,0,0,0,0,0,0,0,0,0,0,0,0,0,0,0,0,0,0,0,0,0,0,0,0,0,0,0,0,0,0,0,0,0,0,0,0,0,0,0,0,0,0,0,0,0,0,0,0,0,0,0,0,0,0,0,0,0,0,0,0,0,0,0,0,0,0,0,0,0,0,0,0,0,0,0,0,0,0,0,0,0,0,0,0,0,0,0,0,0,0,0,0,0,0,0,0,0,0,0,0,0,0,0,0,0,0,0,0,0,0,0,0,0,0,0,0,0,0,0,0,0,0,0,0,0,0,0,0,0,0,0,0,0,0,0,0,0,0,0,0,0,0,0,0,0,0,0,0,0,0,0,0,0,0,0,0,0,0,0,0,0,0,0,0,0,0,0,0,0,0,0,0,0,0,0,0,0,0,0,0,0,0,0,0,0,0,0,0,0,0,0,0,0,0,0,0,0,0,0,0,0,0,0,0,0,0,0,0,0,0,0,0,0,0,0,0,0,0,0,0,0,0,0,0,0,0,0,0,0,0,0,0,0,0,0,0,0,0,0,0,0,0,0,0,0,0,0,0,0,0,0,0,0,0,0,0,0,0,0,0,0,0,0,0,0,0,0,0],"trees":[{"base_weights":[2.8737554E-2,-7.3152035E-1,3.9965537E-1,-1.1504093E0,-4.4251204E-1,1.7660548E-1,6.3449544E-1,-5.882001E-1,-1.2915773E0,-2.1012506E-1,-6.9742894E-1,-1.8313557E-1,2.3872139E-1,7.051776E-1,2.950924E-1,-1.5716767E-1,-1.2495921E0,-1.4256604E0,-3.2427073E-1,-4.534704E-2,-5.289392E-1,-1.2111794E0,-4.2080262E-1,-6.917401E-1,-4.926257E-2,4.3514404E-1,-1.10854E-2,2.9337174E-1,7.8798145E-1,6.080378E-1,1.7592208E-1,-1.6670878E0,3.1443658E-1,-1.9495664E0,-5.154177E-1,-1.764778E0,-1.1621783E0,-8.393563E-1,7.2761834E-1,-5.84055E-1,1.6563995E-1,3.0718523E-1,-5.9768873E-1,-6.708008E-1,-2.2829032E0,-1.0860064E0,-3.463712E-1,-1.8911479E0,-5.2388906E-1,3.5398707E-3,-1.0091805E0,3.2513818E-1,6.1999094E-1,7.946655E-2,-2.890253E-1,1.4695284E-1,5.730179E-1,6.7088723E-1,9.133992E-1,6.212433E-1,-2.6537792E-3,2.1639447E-1,-6.986818E-1,-1.0370593E0,-2.9332577E-3,1.13967836E-1,1.2053254E0,-1.3992825E0,-2.7371702E0,1.0857403E0,-2.0831304E0,-1.8872871E0,-1.0268543E0,-1.4442044E0,-9.8136204E-1,-1.4344122E0,-5.307755E-1,9.273918E-1,-2.8657143E-3,-4.659376E-1,-1.6941378E0,4.144967E-2,7.9392594E-1,4.3347055E-1,-2.7687813E-3,-2.0034792E0,-5.7537043E-1,-6.0721827E-1,-2.9162646E-3,-2.4431002E0,-7.1818197E-1,-9.236657E-1,-2.909859E-3,-2.430467E-1,-7.726046E-1,-7.03191E-2,-2.470411E0,-1.9207826E-1,-1.0950688E0,5.3277474E-2,-7.7516264E-1,-3.0500388E-1,-2.3103411E0,2.8786618E-1,9.236387E-1,1.6403379E-1,6.82141E-1,2.8592905E-1,-6.8909717E-3,-5.091039E-1,-1.8766524E-2,1.7390437E-1,-1.2817492E0,6.3356525E-1,-8.3022684E-1,7.7170616E-1,5.388999E-1,9.891775E-1,8.085798E-1,-2.6281031E-3,6.333694E-1,7.611224E-2,4.243221E-1,-2.622601E-1,-2.8856574E-3,-2.408521E-3,-3.464491E-4,5.5869226E-4,-7.4045977E-4,1.3000742E-3,-2.6185177E-3,-1.9206022E-3,1.0421913E-3,-2.9385998E-3,-5.403545E-4,1.2062627E-3,-2.7158658E-3,-2.3655868E-3,3.361603E-4,-1.2296638E-3,-2.008758E-3,-6.316683E-4,-2.289346E-3,-1.1266631E-3,-1.7962918E-3,-2.4987993E-4,-1.2093862E-3,-2.9314305E-3,-5.060308E-4,-1.5874971E-4,-1.1974055E-3,9.955527E-4,-2.7029398E-3,-3.1254714E-4,-1.1241535E-3,-2.9224008E-3,-8.4923045E-4,2.0308717E-4,-8.431895E-4,-1.4393526E-3,9.789082E-4,-2.661445E-3,5.145318E-4,-2.8981376E-3,7.1592396E-4,-6.028541E-4,4.9762236E-4,-1.1292613E-3,-3.4866628E-4,-2.5156927E-3,-8.334242E-4,-2.8779642E-3,4.581482E-5,-1.2415182E-3,8.073084E-5,-2.934956E-4,5.099226E-4,-2.0472326E-3,-5.577489E-4,9.5305307E-4,-2.741945E-3,-9.98497E-4,-2.9228318E-3,-2.8660197E-3,-8.4075305E-5,-2.9166213E-3,-7.057698E-4,-2.078797E-4,1.9297474E-4,-1.5633615E-3,-1.7279592E-4,-2.87272E-3,2.5985704E-4,-2.9158068E-3,-0E0,3.673792E-4,-3.588877E-5,-2.4873605E-3,9.4600156E-4,5.7612057E-4,-7.6220825E-4,6.9504435E-4,-2.8533775E-3,3.005437E-4,-2.8102442E-3,-2.510198E-4,9.797096E-5,1.2327038E-4,-6.2856765E-4,-1.3481122E-3,3.6719804E-5,2.9812998E-4,-1.3614779E-5,-2.8775178E-3,1.8378011E-4,-2.5975124E-3,6.449617E-4,-1.8562747E-3,1.160849E-3,5.4943096E-4,8.7845227E-4,5.5409566E-4,-7.0685474E-4,8.432795E-4,1.0604225E-3,7.6067145E-4,1.0103176E-3,-8.6647033E-4,6.5541494E-4,-2.88134E-3,1.12053596E-4,-2.6915132E-3,4.3871184E-4,-1.6956755E-3,2.0533711E-4],"categories":[],"categories_nodes":[],"categories_segments":[],"categories_sizes":[],"default_left":[0,0,0,0,0,1,0,0,0,0,0,0,0,0,0,0,0,0,0,0,0,0,0,0,0,0,0,0,0,0,0,0,0,0,0,0,0,0,0,0,0,0,0,0,0,0,0,0,0,0,0,0,0,0,0,0,0,0,0,0,0,0,0,0,0,0,0,0,0,0,0,0,0,0,0,0,0,0,0,0,0,0,0,0,0,0,0,0,0,1,0,0,0,0,0,0,0,0,0,0,0,0,0,0,0,0,0,0,0,0,0,0,0,0,0,0,0,0,0,0,0,0,0,0,0,0,0,0,0,0,0,0,0,0,0,0,0,0,0,0,0,0,0,0,0,0,0,0,0,0,0,0,0,0,0,0,0,0,0,0,0,0,0,0,0,0,0,0,0,0,0,0,0,0,0,0,0,0,0,0,0,0,0,0,0,0,0,0,0,0,0,0,0,0,0,0,0,0,0,0,0,0,0,0,0,0,0,0,0,0,0,0,0,0,0,0,0,0,0,0,0,0,0,0,0,0,0,0,0,0,0,0,0,0,0],"id":0,"left_children":[1,3,5,7,9,11,13,15,17,19,21,23,25,27,29,31,33,35,37,39,41,43,45,47,49,51,53,55,57,59,61,63,65,67,69,71,73,75,77,79,81,83,85,87,89,91,93,95,97,99,101,103,105,107,109,111,113,115,117,119,-1,121,123,125,-1,127,129,131,133,135,137,139,141,143,145,147,149,151,-1,153,155,157,159,161,-1,163,165,167,-1,169,171,173,-1,175,177,179,181,183,185,187,189,191,193,195,197,199,201,203,205,207,209,211,213,215,217,219,221,223,225,-1,227,229,231,233,-1,-1,-1,-1,-1,-1,-1,-1,-1,-1,-1,-1,-1,-1,-1,-1,-1,-1,-1,-1,-1,-1,-1,-1,-1,-1,-1,-1,-1,-1,-1,-1,-1,-1,-1,-1,-1,-1,-1,-1,-1,-1,-1,-1,-1,-1,-1,-1,-1,-1,-1,-1,-1,-1,-1,-1,-1,-1,-1,-1,-1,-1,-1,-1,-1,-1,-1,-1,-1,-1,-1,-1,-1,-1,-1,-1,-1,-1,-1,-1,-1,-1,-1,-1,-1,-1,-1,-1,-1,-1,-1,-1,-1,-1,-1,-1,-1,-1,-1,-1,-1,-1,-1,-1,-1,-1,-1,-1,-1,-1,-1],"loss_changes":[7.466155E4,1.0508715E4,9.320488E3,2.8108516E3,3.0428066E3,2.0395298E3,2.0786406E3,2.0278667E3,3.672457E3,1.4117168E3,3.4800947E3,9.145704E2,3.819205E3,2.4453281E3,5.5677E2,3.0712085E3,1.4399731E3,2.2183281E3,1.8707413E3,2.0147418E3,5.268198E2,4.961121E3,7.873098E2,5.60855E2,5.398351E2,8.852334E2,8.6240015E2,4.9140393E2,8.7541406E2,1.7890222E2,3.8319818E2,8.123103E2,5.859868E2,6.1467334E2,3.4493203E3,9.7866016E2,7.108633E2,4.2343848E2,8.17678E2,6.5186145E2,9.93255E2,2.7106833E2,2.6249902E2,8.0962744E2,7.1587305E2,4.682091E2,6.301902E2,3.5993604E2,4.648966E2,3.9036926E2,5.0641705E2,6.084497E2,4.5998047E2,4.6087753E2,5.0056757E2,3.0351642E2,3.5130896E2,4.0984668E2,2.2691406E2,1.6321729E2,0E0,3.0156406E2,4.5411322E2,6.490227E2,0E0,1.0205848E3,2.2290588E2,1.08399E3,2.5642676E2,3.156671E2,4.765935E2,7.394414E2,7.707455E2,6.067412E2,1.423208E3,1.0939941E3,3.782584E2,2.695224E2,0E0,4.542495E2,4.9127283E2,1.5207802E3,8.699094E2,1.6911649E2,0E0,3.23649E2,2.462395E2,7.4735315E2,0E0,2.9957715E2,4.458293E2,4.7097888E2,0E0,4.3828937E2,7.621079E2,2.35747E2,1.666305E2,4.4786826E2,6.3498413E2,3.460271E2,2.8600873E2,5.2787195E2,2.7233582E2,6.62343E2,1.2482239E2,7.458474E2,6.543452E2,3.4493567E2,4.6653802E2,3.5091162E2,2.7969467E2,1.805351E2,3.433111E2,1.4725317E2,3.5292865E2,4.1403613E2,2.5392725E2,1.7155371E2,1.14993164E2,0E0,1.3599548E2,6.56314E2,1.8749731E2,2.6993777E2,0E0,0E0,0E0,0E0,0E0,0E0,0E0,0E0,0E0,0E0,0E0,0E0,0E0,0E0,0E0,0E0,0E0,0E0,0E0,0E0,0E0,0E0,0E0,0E0,0E0,0E0,0E0,0E0,0E0,0E0,0E0,0E0,0E0,0E0,0E0,0E0,0E0,0E0,0E0,0E0,0E0,0E0,0E0,0E0,0E0,0E0,0E0,0E0,0E0,0E0,0E0,0E0,0E0,0E0,0E0,0E0,0E0,0E0,0E0,0E0,0E0,0E0,0E0,0E0,0E0,0E0,0E0,0E0,0E0,0E0,0E0,0E0,0E0,0E0,0E0,0E0,0E0,0E0,0E0,0E0,0E0,0E0,0E0,0E0,0E0,0E0,0E0,0E0,0E0,0E0,0E0,0E0,0E0,0E0,0E0,0E0,0E0,0E0,0E0,0E0,0E0,0E0,0E0,0E0,0E0,0E0,0E0,0E0,0E0,0E0,0E0],"parents":[2147483647,0,0,1,1,2,2,3,3,4,4,5,5,6,6,7,7,8,8,9,9,10,10,11,11,12,12,13,13,14,14,15,15,16,16,17,17,18,18,19,19,20,20,21,21,22,22,23,23,24,24,25,25,26,26,27,27,28,28,29,29,30,30,31,31,32,32,33,33,34,34,35,35,36,36,37,37,38,38,39,39,40,40,41,41,42,42,43,43,44,44,45,45,46,46,47,47,48,48,49,49,50,50,51,51,52,52,53,53,54,54,55,55,56,56,57,57,58,58,59,59,61,61,62,62,63,63,65,65,66,66,67,67,68,68,69,69,70,70,71,71,72,72,73,73,74,74,75,75,76,76,77,77,79,79,80,80,81,81,82,82,83,83,85,85,86,86,87,87,89,89,90,90,91,91,93,93,94,94,95,95,96,96,97,97,98,98,99,99,100,100,101,101,102,102,103,103,104,104,105,105,106,106,107,107,108,108,109,109,110,110,111,111,112,112,113,113,114,114,115,115,116,116,117,117,118,118,120,120,121,121,122,122,123,123],"right_children":[2,4,6,8,10,12,14,16,18,20,22,24,26,28,30,32,34,36,38,40,42,44,46,48,50,52,54,56,58,60,62,64,66,68,70,72,74,76,78,80,82,84,86,88,90,92,94,96,98,100,102,104,106,108,110,112,114,116,118,120,-1,122,124,126,-1,128,130,132,134,136,138,140,142,144,146,148,150,152,-1,154,156,158,160,162,-1,164,166,168,-1,170,172,174,-1,176,178,180,182,184,186,188,190,192,194,196,198,200,202,204,206,208,210,212,214,216,218,220,222,224,226,-1,228,230,232,234,-1,-1,-1,-1,-1,-1,-1,-1,-1,-1,-1,-1,-1,-1,-1,-1,-1,-1,-1,-1,-1,-1,-1,-1,-1,-1,-1,-1,-1,-1,-1,-1,-1,-1,-1,-1,-1,-1,-1,-1,-1,-1,-1,-1,-1,-1,-1,-1,-1,-1,-1,-1,-1,-1,-1,-1,-1,-1,-1,-1,-1,-1,-1,-1,-1,-1,-1,-1,-1,-1,-1,-1,-1,-1,-1,-1,-1,-1,-1,-1,-1,-1,-1,-1,-1,-1,-1,-1,-1,-1,-1,-1,-1,-1,-1,-1,-1,-1,-1,-1,-1,-1,-1,-1,-1,-1,-1,-1,-1,-1,-1],"split_conditions":[-3.492846E-1,-7.129904E-1,6.1170083E-1,-1.9594909E0,4.79982E5,-3.81531E5,2.866982E6,5.19E2,9.15E2,1.0248437E0,1.293999E6,-1.6827846E-1,7.01387E5,4.61E2,-3.0243307E-1,3.15E2,8.27E2,-8.496934E-1,3.3687916E0,1.415E3,-2.584108E7,1.127068E6,-7.101141E-1,5.4E1,6.992633E-1,3.632821E-1,6.990249E6,1.9467566E0,1.5316347E0,2.835E3,2.0475184E7,3.081046E-2,5.12E2,6.89E2,8.41E2,6.530724E6,4.45E2,-8.6771274E-1,1.47E2,1.5551038E-1,9.17E2,7.2091185E-2,1.1E2,1E0,-4.3179414E-1,-1.6887403E-1,1.6978422E-1,3E0,5.54E2,-2.603053E6,3.5333353E-1,1.738E3,3.07E2,-2.2721642E-1,1.3500166E-1,1E0,2.7879E-1,3.12934E5,3.25091E5,2.956847E6,-2.6537792E-3,4.25E2,1E0,-4.2876968E-1,-2.9332577E-3,3.75E2,7.45178E5,6.85E2,-7.2680974E-1,2.201461E6,1.573343E7,-8.432565E6,-8.872901E-1,2.8E2,5.19E2,9.5E2,1.09889E6,2.492889E6,-2.8657143E-3,-6.065304E6,4E0,7.926406E-1,-2.1003705E-1,1.1625335E0,-2.7687813E-3,1.492E3,2.447E3,6.43155E5,-2.9162646E-3,1E0,-1.8101351E-1,7.6165E-1,-2.909859E-3,2.181549E7,2.7879E-1,-2.3444652E7,1E0,-2.7545242E7,6.89E2,4.43E2,4E0,4.75E2,-2.603053E6,-2.8075564E-1,1.61E2,2.73E2,2.11E3,3.017E3,-1.12120494E-1,-4.2876968E-1,1E1,5.54E2,7.93E2,1.1E2,1E0,5.12E2,2.00001E0,4.69E2,3.5276473E0,-2.6281031E-3,-2.9815903E1,-8.818576E-1,-2.9086825E-1,1.2045095E0,-2.8856574E-3,-2.408521E-3,-3.464491E-4,5.5869226E-4,-7.4045977E-4,1.3000742E-3,-2.6185177E-3,-1.9206022E-3,1.0421913E-3,-2.9385998E-3,-5.403545E-4,1.2062627E-3,-2.7158658E-3,-2.3655868E-3,3.361603E-4,-1.2296638E-3,-2.008758E-3,-6.316683E-4,-2.289346E-3,-1.1266631E-3,-1.7962918E-3,-2.4987993E-4,-1.2093862E-3,-2.9314305E-3,-5.060308E-4,-1.5874971E-4,-1.1974055E-3,9.955527E-4,-2.7029398E-3,-3.1254714E-4,-1.1241535E-3,-2.9224008E-3,-8.4923045E-4,2.0308717E-4,-8.431895E-4,-1.4393526E-3,9.789082E-4,-2.661445E-3,5.145318E-4,-2.8981376E-3,7.1592396E-4,-6.028541E-4,4.9762236E-4,-1.1292613E-3,-3.4866628E-4,-2.5156927E-3,-8.334242E-4,-2.8779642E-3,4.581482E-5,-1.2415182E-3,8.073084E-5,-2.934956E-4,5.099226E-4,-2.0472326E-3,-5.577489E-4,9.5305307E-4,-2.741945E-3,-9.98497E-4,-2.9228318E-3,-2.8660197E-3,-8.4075305E-5,-2.9166213E-3,-7.057698E-4,-2.078797E-4,1.9297474E-4,-1.5633615E-3,-1.7279592E-4,-2.87272E-3,2.5985704E-4,-2.9158068E-3,-0E0,3.673792E-4,-3.588877E-5,-2.4873605E-3,9.4600156E-4,5.7612057E-4,-7.6220825E-4,6.9504435E-4,-2.8533775E-3,3.005437E-4,-2.8102442E-3,-2.510198E-4,9.797096E-5,1.2327038E-4,-6.2856765E-4,-1.3481122E-3,3.6719804E-5,2.9812998E-4,-1.3614779E-5,-2.8775178E-3,1.8378011E-4,-2.5975124E-3,6.449617E-4,-1.8562747E-3,1.160849E-3,5.4943096E-4,8.7845227E-4,5.5409566E-4,-7.0685474E-4,8.432795E-4,1.0604225E-3,7.6067145E-4,1.0103176E-3,-8.6647033E-4,6.5541494E-4,-2.88134E-3,1.12053596E-4,-2.6915132E-3,4.3871184E-4,-1.6956755E-3,2.0533711E-4],"split_indices":[2,2,2,10,15,15,15,3,3,10,15,2,15,15,11,3,3,2,1,15,15,15,1,13,10,1,15,2,2,13,15,11,3,3,3,15,3,2,13,11,3,11,3,20,2,11,11,13,3,15,2,13,3,11,2,21,11,15,15,15,0,13,18,11,0,3,15,3,2,15,15,15,2,3,3,3,15,15,0,15,9,1,10,10,0,13,13,15,0,20,11,10,0,15,11,15,9,15,3,3,9,3,15,1,3,3,13,13,2,11,13,3,3,3,19,3,18,3,2,0,10,1,11,2,0,0,0,0,0,0,0,0,0,0,0,0,0,0,0,0,0,0,0,0,0,0,0,0,0,0,0,0,0,0,0,0,0,0,0,0,0,0,0,0,0,0,0,0,0,0,0,0,0,0,0,0,0,0,0,0,0,0,0,0,0,0,0,0,0,0,0,0,0,0,0,0,0,0,0,0,0,0,0,0,0,0,0,0,0,0,0,0,0,0,0,0,0,0,0,0,0,0,0,0,0,0,0,0,0,0,0,0,0,0,0],"split_type":[0,0,0,0,0,0,0,0,0,0,0,0,0,0,0,0,0,0,0,0,0,0,0,0,0,0,0,0,0,0,0,0,0,0,0,0,0,0,0,0,0,0,0,0,0,0,0,0,0,0,0,0,0,0,0,0,0,0,0,0,0,0,0,0,0,0,0,0,0,0,0,0,0,0,0,0,0,0,0,0,0,0,0,0,0,0,0,0,0,0,0,0,0,0,0,0,0,0,0,0,0,0,0,0,0,0,0,0,0,0,0,0,0,0,0,0,0,0,0,0,0,0,0,0,0,0,0,0,0,0,0,0,0,0,0,0,0,0,0,0,0,0,0,0,0,0,0,0,0,0,0,0,0,0,0,0,0,0,0,0,0,0,0,0,0,0,0,0,0,0,0,0,0,0,0,0,0,0,0,0,0,0,0,0,0,0,0,0,0,0,0,0,0,0,0,0,0,0,0,0,0,0,0,0,0,0,0,0,0,0,0,0,0,0,0,0,0,0,0,0,0,0,0,0,0,0,0,0,0,0,0,0,0,0,0],"sum_hessian":[2.647612E5,8.6815516E4,1.7794569E5,3.544104E4,5.1374477E4,9.1266234E4,8.667945E4,7.1152905E3,2.8325746E4,2.6877314E4,2.4497162E4,1.3436792E4,7.782944E4,7.173684E4,1.4942603E4,4.3094277E3,2.805863E3,2.4876295E4,3.4494507E3,1.7721367E4,9.155947E3,8.571428E3,1.5925733E4,2.7977427E3,1.0639049E4,4.3570734E4,3.4258707E4,1.2011799E4,5.9725047E4,4.1180664E3,1.0824536E4,1.0249943E3,3.2844333E3,1.4347673E3,1.3710958E3,1.0872401E4,1.4003895E4,2.3160925E3,1.1333582E3,4.987253E3,1.2734114E4,6.9469293E2,8.461254E3,5.7002065E3,2.8712212E3,1.5999205E3,1.4325813E4,3.4120755E2,2.4565352E3,1.0085261E4,5.5378876E2,2.7319332E4,1.6251403E4,2.5839537E4,8.419168E3,7.8865728E3,4.125226E3,3.0894459E4,2.883059E4,4.1028237E3,1.52427025E1,1.0347409E4,4.7712692E2,6.865166E2,3.3847766E2,2.6829631E3,6.014701E2,8.474616E2,5.873057E2,6.7838275E2,6.92713E2,9.321795E3,1.5506058E3,5.465653E3,8.538242E3,7.884949E2,1.5275977E3,1.074853E3,5.850508E1,4.509955E3,4.7729776E2,1.0634448E4,2.0996655E3,6.686907E2,2.6002258E1,1.2980046E2,8.331454E3,5.545314E3,1.5489276E2,2.6035107E3,2.677106E2,1.4714783E3,1.2844218E2,1.1533477E4,2.7923362E3,8.2964905E1,2.5824265E2,1.555684E3,9.008511E2,9.481682E3,6.0357837E2,3.607759E2,1.9301285E2,2.5720621E4,1.5987114E3,1.9510735E3,1.430033E4,7.6211973E3,1.821834E4,4.638635E3,3.7805337E3,7.742189E3,1.4438403E2,3.9557231E3,1.6950299E2,1.7509055E4,1.3385405E4,1.6723238E4,1.2107351E4,1.38977585E1,4.0889258E3,6.18144E3,4.165969E3,3.993443E2,7.7782616E1,2.2842972E2,4.5808688E2,1.7652603E3,9.177029E2,5.880207E2,1.3449444E1,6.9877856E2,1.4868301E2,5.373053E2,5.000043E1,6.586569E2,1.9725851E1,6.205077E2,7.2205345E1,1.4566306E3,7.8651646E3,1.182961E3,3.6764478E2,2.8778708E3,2.5877822E3,2.0303585E3,6.5078833E3,3.003709E2,4.8812396E2,9.82116E2,5.454816E2,1.0562479E3,1.8605064E1,3.660001E3,8.49954E2,1.9277536E2,2.845224E2,8.993006E3,1.6414429E3,1.5962672E2,1.940039E3,1.5691017E1,6.5299963E2,9.773262E1,3.206784E1,8.1244766E3,2.0697726E2,1.8344291E3,3.7108848E3,2.4900603E3,1.1345031E2,6.9040474E1,1.9867012E2,1.117862E3,3.536162E2,1.0810737E4,7.2273926E2,4.0060925E2,2.3917268E3,6.0549164E1,2.241574E1,6.210493E1,1.9613773E2,5.8729237E1,1.4969547E3,1.5668602E2,7.4416504E2,3.3028518E3,6.17883E3,2.6006256E2,3.4351578E2,6.410902E1,2.966669E2,1.5265118E2,4.0361664E1,2.065032E4,5.0703003E3,9.190454E0,1.5895209E3,1.3510817E3,5.999918E2,1.4249671E4,5.0659573E1,7.5869014E3,3.429608E1,5.4749043E3,1.2743436E4,7.363862E2,3.9022485E3,1.5043628E2,3.6300974E3,4.6581147E3,3.084074E3,6.859216E1,7.579186E1,1.25528145E1,3.9431702E3,1.12092026E2,5.7410957E1,5.685065E3,1.1823989E4,1.3225317E4,1.6008838E2,5.495534E3,1.1227704E4,9.791675E3,2.3156758E3,5.80701E1,4.0308557E3,7.2627E1,6.108813E3,1.7708433E1,4.1482607E3,9.75218E1,3.018225E2],"tree_param":{"num_deleted":"0","num_feature":"26","num_nodes":"235","size_leaf_vector":"1"}},{"base_weights":[1.8279962E-2,4.0742198E-1,-6.580419E-1,6.212536E-1,1.6644488E-1,-4.352582E-1,-9.068579E-1,1.9669928E-1,6.81413E-1,2.3342383E-1,-1.918989E-1,-8.293724E-1,-2.2643392E-1,-1.1156348E0,-6.4641005E-1,4.694763E-1,-0E0,7.7335805E-1,3.0144253E-1,-5.8790583E-2,3.0824387E-1,2.1718381E-1,-3.1721294E-1,-3.4473976E-1,-9.4910336E-1,1.4123513E-1,-5.030203E-1,-9.526584E-1,-2.0509865E0,-1.1162431E-1,-8.126084E-1,5.6375873E-1,6.4211495E-2,1.6167235E-1,-3.3084726E-1,8.615357E-1,6.4423E-1,3.3692384E-1,-5.054439E-1,1.4651866E-1,-2.9398853E-1,4.1588077E-1,1.0652434E-1,7.531645E-1,-2.3070745E-1,-1.3084604E0,-2.2529815E-1,-7.356283E-1,7.8676987E-1,-5.9113264E-1,-1.3494546E0,6.531841E-2,8.4655094E-1,-1.0295235E0,-1.0482097E-1,-1.9768902E0,-8.1964624E-1,-1.3554909E0,-2.410335E0,-5.551143E-1,9.068755E-1,-1.2244296E0,-4.7670263E-1,1.052973E-1,6.846716E-1,2.2168756E-1,-2.8381273E-3,-5.0123096E-3,5.3052825E-1,-6.632256E-1,2.79523E-1,9.8773086E-1,7.8157175E-1,7.1927875E-1,4.3628353E-1,5.520646E-1,2.4721406E-1,-1.9079987E0,3.089998E-1,1.7352773E-1,-1.730748E0,-8.583454E-1,-6.2649466E-2,3.881374E-1,7.8581744E-1,-4.5974117E-2,2.953455E-1,8.8216203E-1,-1.3385137E0,-1.2928087E-1,-1.7147831E0,-2.2584511E-2,-1.8710184E0,-1.2825445E0,-1.3992573E-1,-7.731504E-2,-1.3458608E0,9.05607E-1,-2.7774645E-3,-5.378834E-1,-2.9161293E-3,-1.2322218E0,-2.4004297E0,8.3622485E-2,-2.8846269E-3,1.2629204E0,-4.525854E-1,-7.0938295E-1,-1.451396E0,1.171642E0,-4.1598183E-1,-1.109823E0,-2.6786854E0,-1.0035393E0,-3.3848846E-1,-9.929144E-1,-2.9241215E-3,-1.6479752E0,-2.7344496E0,7.5980246E-2,-1.1468763E0,-2.4075608E-3,9.2719734E-1,-1.6888529E0,-8.187333E-1,2.7901463E-2,-7.5294375E-1,2.4934404E-4,-2.8136272E-3,7.3544454E-4,-1.4183777E-4,-2.725342E-3,3.0269366E-4,1.2590644E-4,-8.45794E-4,5.7606125E-4,-2.6858577E-3,-1.0436088E-3,3.2544696E-5,5.394711E-4,-1.5812339E-3,7.055955E-4,1.0157458E-3,7.8529696E-4,-2.7451452E-3,7.253003E-4,-2.7950322E-3,3.7116767E-4,1.033791E-3,1.8164772E-4,7.4249256E-4,-2.8521977E-3,2.6293303E-4,-2.9119824E-3,-2.625854E-4,4.5655452E-4,-2.6875546E-3,1.2443557E-4,1.1090561E-3,-2.8775798E-3,8.690322E-4,-2.356781E-3,-6.624733E-4,3.3025417E-4,-3.239812E-4,4.7308273E-4,2.3145798E-4,-2.7942911E-3,8.340163E-4,5.1367993E-4,-1.4961445E-4,3.8295027E-4,-2.630033E-4,-4.652003E-4,9.963567E-4,-2.8491118E-3,1.3807071E-3,-2.201328E-4,1.3957351E-3,-2.8784727E-3,1.1236996E-3,7.5662404E-4,-2.8550557E-3,-2.3579018E-3,-4.8064455E-4,-2.5143527E-4,-2.2264076E-3,-1.0508063E-4,-1.6233745E-3,-1.6585772E-3,5.981027E-4,-2.9130427E-3,-1.1429252E-3,9.83925E-4,-2.6838733E-3,-6.6103606E-4,7.0653856E-5,-1.5217307E-3,-7.079679E-4,1.13744754E-4,-2.734105E-3,2.740913E-4,-7.317526E-5,1.2773988E-3,-1.9809909E-3,4.7895996E-5,-2.8622174E-3,-4.5270773E-4,-1.1248416E-3,-1.1014377E-3,-1.9910806E-3,1.2360674E-3,-2.8007193E-3,-9.0191513E-4,2.7041064E-4,7.265101E-4,-1.5025685E-3,-2.0085394E-3,-2.8323052E-3,-7.9377554E-4,-1.4947484E-3,1.0110418E-3,-1.1195309E-3,-7.988728E-4,-2.892817E-3,-2.194258E-3,-6.1190396E-4,-2.9407127E-3,-2.087301E-3,-1.6204905E-3,7.354226E-4,-1.6463883E-3,-4.3518882E-4,9.428818E-4,-2.2750804E-3,-1.7830939E-3,2.599495E-4,-7.2860805E-4,-2.9133162E-3,-2.8615186E-3,8.470568E-5,-8.432168E-4,4.3307262E-4],"categories":[],"categories_nodes":[],"categories_segments":[],"categories_sizes":[],"default_left":[0,0,0,0,0,0,0,0,0,0,0,0,0,0,0,0,0,0,0,0,0,0,0,0,0,0,0,0,0,0,0,0,0,0,0,0,0,0,0,0,0,0,0,0,0,0,0,0,0,0,0,0,0,0,0,0,0,0,0,0,0,0,0,0,0,0,0,0,0,0,0,0,0,0,0,0,0,0,0,0,0,0,0,0,0,0,0,0,0,0,1,0,0,0,0,0,0,0,0,0,0,0,0,0,0,0,0,0,0,0,0,0,0,0,0,0,0,0,0,0,1,0,0,0,0,0,0,0,0,0,0,0,0,0,0,0,0,0,0,0,0,0,0,0,0,0,0,0,0,0,0,0,0,0,0,0,0,0,0,0,0,0,0,0,0,0,0,0,0,0,0,0,0,0,0,0,0,0,0,0,0,0,0,0,0,0,0,0,0,0,0,0,0,0,0,0,0,0,0,0,0,0,0,0,0,0,0,0,0,0,0,0,0,0,0,0,0,0,0,0,0,0,0,0,0,0,0,0,0,0,0,0,0,0,0,0,0,0,0,0,0,0,0],"id":1,"left_children":[1,3,5,7,9,11,13,15,17,19,21,23,25,27,29,31,33,35,37,39,41,43,45,47,49,51,53,55,57,59,61,63,65,67,69,71,73,75,77,79,81,83,85,87,89,91,93,95,97,99,101,103,105,107,109,111,113,115,117,119,121,123,125,127,129,131,-1,133,135,137,139,141,143,145,147,149,151,153,155,157,159,161,163,165,167,169,171,173,175,177,179,181,183,185,187,189,191,193,-1,195,-1,197,199,201,-1,203,205,207,209,211,213,215,217,219,221,223,-1,225,227,229,231,-1,233,235,237,239,241,-1,-1,-1,-1,-1,-1,-1,-1,-1,-1,-1,-1,-1,-1,-1,-1,-1,-1,-1,-1,-1,-1,-1,-1,-1,-1,-1,-1,-1,-1,-1,-1,-1,-1,-1,-1,-1,-1,-1,-1,-1,-1,-1,-1,-1,-1,-1,-1,-1,-1,-1,-1,-1,-1,-1,-1,-1,-1,-1,-1,-1,-1,-1,-1,-1,-1,-1,-1,-1,-1,-1,-1,-1,-1,-1,-1,-1,-1,-1,-1,-1,-1,-1,-1,-1,-1,-1,-1,-1,-1,-1,-1,-1,-1,-1,-1,-1,-1,-1,-1,-1,-1,-1,-1,-1,-1,-1,-1,-1,-1,-1,-1,-1,-1,-1,-1],"loss_changes":[6.920835E4,8.600691E3,5.3225977E3,2.2582188E3,1.88379E3,4.169869E3,2.464957E3,5.889253E2,2.705371E3,1.4458813E3,6.3372E2,1.01721094E3,3.3691133E3,3.8338496E3,1.7939658E3,1.7537115E2,3.4137134E2,7.085508E2,4.323546E2,6.510428E2,1.1427734E3,6.9623834E2,8.609096E2,1.5400385E3,2.0144727E3,7.610077E2,3.9631157E3,2.917871E3,9.265498E2,2.1639873E3,2.1289814E3,2.062721E2,3.9761627E2,2.639587E2,4.2539825E2,3.718711E2,3.940332E2,2.78505E2,7.280228E2,3.6457968E2,8.19898E2,3.5126465E2,5.277146E2,3.5775092E2,2.3648691E2,5.792721E2,7.8081995E2,1.038636E3,3.814699E2,9.160679E2,8.1193945E2,6.924143E2,7.484432E2,1.0968809E3,4.27693E3,1.4926836E3,1.6785557E3,7.194634E2,5.9885645E2,1.2472383E3,1.00483765E2,1.3000938E3,1.1833324E3,3.2819077E2,1.2427002E2,1.9757346E2,0E0,3.2573813E2,1.9690247E2,3.5971515E2,3.5820535E2,1.1159961E2,3.003584E2,3.955703E2,2.6014685E2,2.9931714E2,4.972649E2,3.8386676E2,1.7906015E2,3.2509723E2,3.0872324E2,5.321655E2,4.5803262E2,4.245332E2,4.1527856E2,5.87821E2,4.0069928E2,1.9245776E2,3.2316232E2,2.0497214E2,3.380214E2,5.4707227E2,3.7445264E2,6.271593E2,4.132671E2,1.3335626E3,4.1989624E2,2.46659E2,0E0,5.4504443E2,0E0,9.0455664E2,5.591543E2,3.8136127E2,0E0,5.260547E1,4.0690564E2,4.9241162E2,6.5814404E2,5.444956E2,2.8885955E3,7.988651E2,1.2906738E2,1.4121201E3,5.537867E3,3.7774158E2,0E0,4.143108E2,2.183086E2,1.8095132E3,6.104558E2,0E0,7.5152954E1,5.934707E2,6.926787E2,4.9186984E2,5.8798804E2,0E0,0E0,0E0,0E0,0E0,0E0,0E0,0E0,0E0,0E0,0E0,0E0,0E0,0E0,0E0,0E0,0E0,0E0,0E0,0E0,0E0,0E0,0E0,0E0,0E0,0E0,0E0,0E0,0E0,0E0,0E0,0E0,0E0,0E0,0E0,0E0,0E0,0E0,0E0,0E0,0E0,0E0,0E0,0E0,0E0,0E0,0E0,0E0,0E0,0E0,0E0,0E0,0E0,0E0,0E0,0E0,0E0,0E0,0E0,0E0,0E0,0E0,0E0,0E0,0E0,0E0,0E0,0E0,0E0,0E0,0E0,0E0,0E0,0E0,0E0,0E0,0E0,0E0,0E0,0E0,0E0,0E0,0E0,0E0,0E0,0E0,0E0,0E0,0E0,0E0,0E0,0E0,0E0,0E0,0E0,0E0,0E0,0E0,0E0,0E0,0E0,0E0,0E0,0E0,0E0,0E0,0E0,0E0,0E0,0E0,0E0,0E0,0E0,0E0,0E0,0E0],"parents":[2147483647,0,0,1,1,2,2,3,3,4,4,5,5,6,6,7,7,8,8,9,9,10,10,11,11,12,12,13,13,14,14,15,15,16,16,17,17,18,18,19,19,20,20,21,21,22,22,23,23,24,24,25,25,26,26,27,27,28,28,29,29,30,30,31,31,32,32,33,33,34,34,35,35,36,36,37,37,38,38,39,39,40,40,41,41,42,42,43,43,44,44,45,45,46,46,47,47,48,48,49,49,50,50,51,51,52,52,53,53,54,54,55,55,56,56,57,57,58,58,59,59,60,60,61,61,62,62,63,63,64,64,65,65,67,67,68,68,69,69,70,70,71,71,72,72,73,73,74,74,75,75,76,76,77,77,78,78,79,79,80,80,81,81,82,82,83,83,84,84,85,85,86,86,87,87,88,88,89,89,90,90,91,91,92,92,93,93,94,94,95,95,96,96,97,97,99,99,101,101,102,102,103,103,105,105,106,106,107,107,108,108,109,109,110,110,111,111,112,112,113,113,114,114,115,115,117,117,118,118,119,119,120,120,122,122,123,123,124,124,125,125,126,126],"right_children":[2,4,6,8,10,12,14,16,18,20,22,24,26,28,30,32,34,36,38,40,42,44,46,48,50,52,54,56,58,60,62,64,66,68,70,72,74,76,78,80,82,84,86,88,90,92,94,96,98,100,102,104,106,108,110,112,114,116,118,120,122,124,126,128,130,132,-1,134,136,138,140,142,144,146,148,150,152,154,156,158,160,162,164,166,168,170,172,174,176,178,180,182,184,186,188,190,192,194,-1,196,-1,198,200,202,-1,204,206,208,210,212,214,216,218,220,222,224,-1,226,228,230,232,-1,234,236,238,240,242,-1,-1,-1,-1,-1,-1,-1,-1,-1,-1,-1,-1,-1,-1,-1,-1,-1,-1,-1,-1,-1,-1,-1,-1,-1,-1,-1,-1,-1,-1,-1,-1,-1,-1,-1,-1,-1,-1,-1,-1,-1,-1,-1,-1,-1,-1,-1,-1,-1,-1,-1,-1,-1,-1,-1,-1,-1,-1,-1,-1,-1,-1,-1,-1,-1,-1,-1,-1,-1,-1,-1,-1,-1,-1,-1,-1,-1,-1,-1,-1,-1,-1,-1,-1,-1,-1,-1,-1,-1,-1,-1,-1,-1,-1,-1,-1,-1,-1,-1,-1,-1,-1,-1,-1,-1,-1,-1,-1,-1,-1,-1,-1,-1,-1,-1,-1],"split_conditions":[9.017406E-1,-2.0009625E0,5.17182E5,4.61E2,4.222379E6,4.882E3,2.77781E6,-1.89139E7,2.866982E6,-3.81531E5,2.4713086E8,2.486632E8,1.963895E0,2.562015E6,2.4713086E8,8.81E2,-3.7987134E0,3.3808E5,2.0475184E7,-2.684391E-1,7.01387E5,7.6E1,2.7E1,2.4625125E8,1.9843006E0,9.522E3,4.6815574E8,1.0341294E0,2.17E2,2.4625125E8,2.83E2,9.6E1,6E0,1.9491161E0,2.4E1,-6.503608E0,-3.4642823E0,-4.232066E0,4.4E2,1E0,9E0,9.522E3,6.054279E8,7.654E3,6.8608224E-1,3.6930803E8,3.255871E8,1.5158048E8,-9.33601E5,9.5843866E8,2.9081469E0,1E0,9.541E3,2.865458E0,4.764457E8,1E0,7.820812E8,1.7E1,7E0,1.4950277E8,1.0632819E0,5.751856E8,1.4050877E0,6.4E1,2.1E1,9.51E2,-2.8381273E-3,7.957E3,1.934E3,8.49E2,7.1769325E8,2.4713086E8,3.017E3,9.938246E8,9.529298E8,1.63E2,3E0,1.9E1,2.7E1,9.787E3,2.4581757E0,7E1,-1.0109762E-1,4.949E3,3.0663478E8,1.4950277E8,9.34E2,6E0,7.603247E0,3.757E3,1E0,-6.0714626E-1,4.528925E-1,8E0,1E0,1.3197209E8,1.6248923E8,2.1E1,-2.7774645E-3,4.61E2,-2.9161293E-3,5E0,2E0,8.0007E4,-2.8846269E-3,3E1,2E1,3.977E3,1.5761739E0,6.16E2,6.589E3,6.43155E5,1.51E3,2.5203764E0,8.0161485E8,3.295672E0,-2.9241215E-3,2.277745E0,2.4337525E0,1.3357314E8,1E0,-2.4075608E-3,4.9E1,1.2650954E1,9.153E3,2.851333E8,7.253262E0,2.4934404E-4,-2.8136272E-3,7.3544454E-4,-1.4183777E-4,-2.725342E-3,3.0269366E-4,1.2590644E-4,-8.45794E-4,5.7606125E-4,-2.6858577E-3,-1.0436088E-3,3.2544696E-5,5.394711E-4,-1.5812339E-3,7.055955E-4,1.0157458E-3,7.8529696E-4,-2.7451452E-3,7.253003E-4,-2.7950322E-3,3.7116767E-4,1.033791E-3,1.8164772E-4,7.4249256E-4,-2.8521977E-3,2.6293303E-4,-2.9119824E-3,-2.625854E-4,4.5655452E-4,-2.6875546E-3,1.2443557E-4,1.1090561E-3,-2.8775798E-3,8.690322E-4,-2.356781E-3,-6.624733E-4,3.3025417E-4,-3.239812E-4,4.7308273E-4,2.3145798E-4,-2.7942911E-3,8.340163E-4,5.1367993E-4,-1.4961445E-4,3.8295027E-4,-2.630033E-4,-4.652003E-4,9.963567E-4,-2.8491118E-3,1.3807071E-3,-2.201328E-4,1.3957351E-3,-2.8784727E-3,1.1236996E-3,7.5662404E-4,-2.8550557E-3,-2.3579018E-3,-4.8064455E-4,-2.5143527E-4,-2.2264076E-3,-1.0508063E-4,-1.6233745E-3,-1.6585772E-3,5.981027E-4,-2.9130427E-3,-1.1429252E-3,9.83925E-4,-2.6838733E-3,-6.6103606E-4,7.0653856E-5,-1.5217307E-3,-7.079679E-4,1.13744754E-4,-2.734105E-3,2.740913E-4,-7.317526E-5,1.2773988E-3,-1.9809909E-3,4.7895996E-5,-2.8622174E-3,-4.5270773E-4,-1.1248416E-3,-1.1014377E-3,-1.9910806E-3,1.2360674E-3,-2.8007193E-3,-9.0191513E-4,2.7041064E-4,7.265101E-4,-1.5025685E-3,-2.0085394E-3,-2.8323052E-3,-7.9377554E-4,-1.4947484E-3,1.0110418E-3,-1.1195309E-3,-7.988728E-4,-2.892817E-3,-2.194258E-3,-6.1190396E-4,-2.9407127E-3,-2.087301E-3,-1.6204905E-3,7.354226E-4,-1.6463883E-3,-4.3518882E-4,9.428818E-4,-2.2750804E-3,-1.7830939E-3,2.599495E-4,-7.2860805E-4,-2.9133162E-3,-2.8615186E-3,8.470568E-5,-8.432168E-4,4.3307262E-4],"split_indices":[16,16,15,15,15,15,15,15,15,15,0,0,16,15,0,13,16,15,15,16,15,13,13,0,16,4,0,16,13,0,13,13,9,14,7,16,16,14,13,24,6,4,0,4,16,0,0,0,15,0,14,24,4,16,0,16,0,6,8,0,16,0,16,13,6,13,0,4,13,13,0,0,13,0,0,13,8,6,7,4,14,13,14,4,0,0,13,13,14,13,19,16,14,6,24,0,0,6,0,15,0,9,7,15,0,7,7,4,14,13,4,15,4,16,0,16,0,16,16,0,18,0,13,14,4,0,16,0,0,0,0,0,0,0,0,0,0,0,0,0,0,0,0,0,0,0,0,0,0,0,0,0,0,0,0,0,0,0,0,0,0,0,0,0,0,0,0,0,0,0,0,0,0,0,0,0,0,0,0,0,0,0,0,0,0,0,0,0,0,0,0,0,0,0,0,0,0,0,0,0,0,0,0,0,0,0,0,0,0,0,0,0,0,0,0,0,0,0,0,0,0,0,0,0,0,0,0,0,0,0,0,0,0,0,0,0,0,0,0,0,0,0,0],"split_type":[0,0,0,0,0,0,0,0,0,0,0,0,0,0,0,0,0,0,0,0,0,0,0,0,0,0,0,0,0,0,0,0,0,0,0,0,0,0,0,0,0,0,0,0,0,0,0,0,0,0,0,0,0,0,0,0,0,0,0,0,0,0,0,0,0,0,0,0,0,0,0,0,0,0,0,0,0,0,0,0,0,0,0,0,0,0,0,0,0,0,0,0,0,0,0,0,0,0,0,0,0,0,0,0,0,0,0,0,0,0,0,0,0,0,0,0,0,0,0,0,0,0,0,0,0,0,0,0,0,0,0,0,0,0,0,0,0,0,0,0,0,0,0,0,0,0,0,0,0,0,0,0,0,0,0,0,0,0,0,0,0,0,0,0,0,0,0,0,0,0,0,0,0,0,0,0,0,0,0,0,0,0,0,0,0,0,0,0,0,0,0,0,0,0,0,0,0,0,0,0,0,0,0,0,0,0,0,0,0,0,0,0,0,0,0,0,0,0,0,0,0,0,0,0,0,0,0,0,0,0,0,0,0,0,0,0,0,0,0,0,0,0,0],"sum_hessian":[2.629618E5,1.6692047E5,9.604135E4,8.843925E4,7.848122E4,5.0674656E4,4.5366695E4,1.0978314E4,7.746094E4,6.612377E4,1.2357443E4,1.7548504E4,3.3126152E4,2.5177438E4,2.0189258E4,4.597884E3,6.3804307E3,6.2366625E4,1.509431E4,1.3478043E4,5.2645727E4,2.8965808E3,9.460862E3,3.4785273E3,1.4069976E4,1.4220984E4,1.890517E4,2.1444494E4,3.7329421E3,4.7880386E3,1.540122E4,3.7286218E3,8.692619E2,4.287386E3,2.0930447E3,3.705232E4,2.5314307E4,1.4459954E4,6.343556E2,7.1954355E3,6.2826074E3,3.4325617E4,1.8320113E4,1.3186627E3,1.5779181E3,8.00682E2,8.660181E3,2.5861047E3,8.924228E2,7.430775E3,6.639201E3,1.2841172E4,1.3798126E3,8.13946E3,1.076571E4,2.461981E3,1.8982514E4,1.2745948E3,2.4583472E3,3.3364194E3,1.451619E3,6.9163296E3,8.484891E3,7.7959546E2,2.9490261E3,8.2600214E2,4.3259796E1,2.9530415E3,1.3343447E3,1.3555607E3,7.37484E2,1.43626455E4,2.2689674E4,1.8596617E4,6.7176885E3,4.2512817E3,1.0208673E4,2.3252454E2,4.0183105E2,7.094985E3,1.0045099E2,1.8247826E3,4.4578247E3,3.1935074E4,2.390541E3,1.0134018E4,8.1860947E3,1.2431047E3,7.555805E1,1.4788184E3,9.909972E1,2.4442737E2,5.5625464E2,6.4504877E2,8.015132E3,1.2452499E3,1.3408547E3,8.648466E2,2.7576174E1,7.266415E3,1.6436021E2,5.9762993E3,6.629016E2,1.2763602E4,7.7569725E1,1.0452422E3,3.345704E2,4.6306616E3,3.5087983E3,2.1088604E3,8.65685E3,1.1033624E3,1.3586185E3,1.3731732E4,5.250781E3,1.0375432E3,2.3705168E2,7.365516E2,1.7217957E3,1.6147765E3,1.721643E3,7.6223493E0,1.4439966E3,3.2219766E3,3.6943528E3,3.0015527E3,5.4833374E3,7.444029E2,3.5192562E1,2.7790762E3,1.6995E2,2.0622179E1,8.0537994E2,2.5557625E3,3.9727902E2,1.317086E3,1.7258606E1,8.7639655E2,4.7916415E2,6.482563E2,8.922769E1,1.3024955E3,1.306015E4,2.266704E4,2.2634579E1,1.8566139E4,3.0479076E1,6.0604897E3,6.571989E2,1.4453567E3,2.805925E3,4.9986637E1,1.0158686E4,1.4350403E2,8.9020515E1,3.8434372E2,1.748733E1,6.7433584E3,3.5162604E2,6.972534E1,3.0725647E1,2.0874763E2,1.616035E3,1.7797382E3,2.678087E3,2.0703984E4,1.123109E4,3.0483091E1,2.360058E3,1.5817682E3,8.552249E3,7.077071E3,1.1090238E3,9.642416E1,1.1466805E3,4.8646103E1,2.6911951E1,1.3971927E3,8.16256E1,7.039498E1,2.8704735E1,1.9241663E2,5.2010735E1,4.1094565E2,1.4530898E2,3.0943756E2,3.3561118E2,7.833082E3,1.8204999E2,3.7226773E2,8.729822E2,1.5114375E2,1.189711E3,8.4758154E2,1.7265028E1,6.0439614E3,1.2224535E3,3.8476848E3,2.1286145E3,7.761074E1,5.852909E2,5.763953E3,6.999649E3,1.0416565E3,3.5856843E0,2.780765E2,5.6493904E1,2.8649805E3,1.765681E3,2.1318733E3,1.376925E3,2.0763445E3,3.2515896E1,5.0687046E3,3.5881445E3,1.9395454E2,9.0940784E2,2.579052E2,1.1007133E3,9.62602E3,4.1057124E3,1.9244766E3,3.3263044E3,9.435682E2,9.3975E1,4.80855E2,2.5569656E2,1.3010338E3,4.2076184E2,4.511671E2,1.1636095E3,1.01004816E3,7.115948E2,1.4381671E3,5.8295155E0,3.0737205E3,1.4825615E2,3.544118E3,1.5023508E2,5.62733E1,2.9452795E3,5.0962915E3,3.870462E2],"tree_param":{"num_deleted":"0","num_feature":"26","num_nodes":"243","size_leaf_vector":"1"}},{"base_weights":[1.585209E-2,-8.815884E-1,3.273709E-1,-1.4489726E0,-7.1210605E-1,1.0655299E-1,6.1338043E-1,-1.6598701E0,-8.453182E-1,-4.5789275E-1,-9.5824796E-1,2.2241877E-1,-1.4123447E-1,6.6304314E-1,1.5049274E-1,-1.4480209E0,-1.9078288E0,-2.6228535E-1,-1.2644181E0,-5.185005E-1,9.226265E-1,-1.3874459E0,-7.1171904E-1,-2.1438026E-1,3.456243E-1,1.0686288E-1,-2.58968E-1,2.536246E-1,7.363595E-1,5.236751E-1,-3.2819852E-2,-1.575423E0,-1.3951507E-1,-1.4425689E0,-2.2231023E0,-2.9223564E-3,2.1293746E-1,-1.5904033E0,-3.0616026E-2,-5.0601766E-2,-6.3501036E-1,1.0688667E0,-2.823729E-3,-8.575878E-1,-2.4554121E0,-1.0867496E0,-5.4964834E-1,-6.6486317E-1,7.1840337E-3,1.3615602E-1,4.2505807E-1,-1.3139412E0,1.647478E-1,-1.1759119E-1,-4.5515648E-1,8.937438E-2,5.5845046E-1,6.0544693E-1,8.7494946E-1,5.535037E-1,-2.7461338E-3,-1.4967362E0,1.2905726E-2,-1.3429619E0,-2.075858E0,2.0139186E-1,-2.8636733E-3,-2.1263855E0,-1.0848905E0,-1.608241E0,-2.6253948E0,4.0089992E-1,-2.881775E-3,-1.746351E0,9.701624E-2,6.035258E-1,-2.8872981E-3,-9.0153265E-1,1.8205912E-1,-6.9383097E-1,4.374282E-1,1.1349871E0,-2.6767214E-3,-5.2537185E-1,-1.639834E0,-1.9941562E0,-2.6666718E0,-1.29571E0,-4.3767396E-1,-1.2314259E0,-4.4706342E-1,-1.468899E0,-5.554973E-1,2.5006756E-1,-2.6600644E-1,3.1335223E-1,-9.478974E-2,3.2680658E-1,5.9416395E-1,-2.9103565E-3,-4.171714E-1,2.0140016E-1,-9.176345E-1,-8.948182E-1,-4.9928177E-2,-7.34836E-1,-3.0998638E-1,-1.3363634E0,1.18413895E-1,6.0733235E-1,-2.858984E-3,7.527217E-1,4.5038274E-1,9.827858E-1,7.5446326E-1,-2.689341E-3,5.7644284E-1,1.0241654E0,-2.9027865E-3,-2.8660644E-3,4.5650356E-2,-2.9149463E-3,-1.2636497E-3,-2.2831922E-3,-1.1814097E-3,-2.7913142E-3,4.1191076E-4,-1.3897038E-3,-2.9285238E-3,-2.4346744E-3,-8.015233E-4,-2.5045977E-3,-1.3439363E-3,-2.9358494E-3,-1.8446705E-3,5.6992704E-4,-1.7085426E-3,-2.069785E-3,-8.788316E-4,-2.830078E-3,1.2210378E-3,9.0305856E-4,-2.7934099E-3,-4.8761145E-4,-2.0619635E-3,-3.5245644E-4,5.6643493E-4,-9.028222E-4,-4.98813E-4,-4.3689992E-4,9.5751777E-4,-2.6274095E-3,1.1922192E-3,-1.8910699E-3,-3.717905E-4,-2.0957557E-3,-7.488094E-4,-2.3269476E-3,-8.393483E-4,1.4203928E-4,-2.717173E-3,-7.725124E-4,-1.5689328E-3,-2.848254E-3,-3.3155433E-4,-2.6593308E-3,-6.565638E-4,-5.372458E-4,1.984211E-4,-6.222931E-4,-2.0197313E-3,-7.4150495E-4,-2.6381592E-4,-2.046425E-3,3.0541082E-4,-1.4528355E-3,-1.4471354E-4,3.2643284E-4,-2.8178878E-3,-2.8859875E-3,-6.158471E-5,4.1271388E-4,-1.3678642E-5,6.413739E-4,2.8604276E-5,-2.840263E-3,4.4137763E-5,1.0782728E-4,4.8413206E-4,-2.891386E-3,-2.5543515E-4,-6.4512546E-4,-2.90341E-3,1.6787773E-4,-2.4505833E-4,-4.0685674E-4,-1.6969027E-3,-2.4107356E-4,-1.106568E-3,1.3003714E-4,-2.880924E-3,1.3106773E-4,-2.793454E-3,8.9768466E-4,3.7220793E-4,-2.6849248E-3,7.5640547E-4,-2.7799609E-3,4.5614716E-4,9.864956E-4,-2.6642433E-3,8.1216515E-4,5.483403E-4,3.0276904E-4,7.020199E-4,-2.2332615E-3,1.4090022E-3,-2.110088E-4,2.3134373E-4],"categories":[],"categories_nodes":[],"categories_segments":[],"categories_sizes":[],"default_left":[0,0,0,0,0,0,0,0,0,0,0,0,0,0,0,0,0,0,0,0,0,0,0,0,0,1,0,0,0,0,0,0,0,0,0,0,0,0,0,0,0,0,0,0,0,0,0,0,0,0,0,0,0,0,0,0,0,0,0,0,0,0,0,0,0,0,0,0,0,0,0,0,0,0,0,0,0,0,1,0,0,0,0,0,0,0,0,0,0,0,0,0,0,0,0,0,0,0,0,0,0,0,0,0,0,0,0,0,0,0,0,0,0,0,0,0,0,0,0,0,0,0,0,0,0,0,0,0,0,0,0,0,0,0,0,0,0,0,0,0,0,0,0,0,0,0,0,0,0,0,0,0,0,0,0,0,0,0,0,0,0,0,0,0,0,0,0,0,0,0,0,0,0,0,0,0,0,0,0,0,0,0,0,0,0,0,0,0,0,0,0,0,0,0,0,0,0,0,0,0,0,0,0,0,0,0,0,0,0,0,0,0,0,0,0,0,0,0,0],"id":2,"left_children":[1,3,5,7,9,11,13,15,17,19,21,23,25,27,29,31,33,35,37,39,41,43,45,47,49,51,53,55,57,59,61,63,65,67,69,-1,71,73,75,77,79,81,-1,83,85,87,89,91,93,95,97,99,101,103,105,107,109,111,113,115,-1,117,119,121,123,125,-1,127,129,131,133,135,-1,137,139,141,-1,143,145,147,149,151,-1,153,155,157,159,161,163,165,167,169,171,173,175,177,179,181,183,-1,185,187,189,191,193,195,197,199,201,203,-1,205,207,209,211,-1,213,215,-1,-1,217,-1,-1,-1,-1,-1,-1,-1,-1,-1,-1,-1,-1,-1,-1,-1,-1,-1,-1,-1,-1,-1,-1,-1,-1,-1,-1,-1,-1,-1,-1,-1,-1,-1,-1,-1,-1,-1,-1,-1,-1,-1,-1,-1,-1,-1,-1,-1,-1,-1,-1,-1,-1,-1,-1,-1,-1,-1,-1,-1,-1,-1,-1,-1,-1,-1,-1,-1,-1,-1,-1,-1,-1,-1,-1,-1,-1,-1,-1,-1,-1,-1,-1,-1,-1,-1,-1,-1,-1,-1,-1,-1,-1,-1,-1,-1,-1,-1,-1],"loss_changes":[7.333037E4,6.4966797E3,1.2296711E4,1.9754414E3,3.2552637E3,3.1547744E3,1.9495801E3,5.9915234E2,9.8297974E2,2.1430483E3,2.7950996E3,4.0295442E3,1.0227183E3,2.2988516E3,5.627672E2,1.035375E3,7.7083203E2,2.1347905E3,9.41302E2,1.3369292E3,5.937646E2,5.4524395E3,1.0192754E3,1.6444902E3,9.713706E2,9.2634845E2,6.5821594E2,5.823249E2,1.1772891E3,2.6545563E2,3.69903E2,6.5321094E2,5.1639166E2,5.197759E2,7.722031E2,0E0,8.3375366E2,4.8859912E2,8.9400555E2,9.693407E2,1.239481E3,2.6082288E2,0E0,1.6734409E3,3.012207E2,6.854253E2,8.189397E2,4.753838E2,7.328079E2,6.5743555E2,7.0275244E2,6.276742E2,4.2945428E2,7.2537225E2,4.0280835E2,3.1288934E2,6.820469E2,7.620781E2,4.0801758E2,2.011084E2,0E0,5.9865454E2,5.030057E2,4.7533545E2,3.268501E2,3.11348E2,0E0,4.2600098E2,5.3568945E2,2.8977954E2,4.5120117E2,4.829262E2,0E0,4.717422E2,5.238292E2,4.131493E2,0E0,5.0219995E2,7.9003174E2,7.57499E2,4.654638E2,2.2384204E2,0E0,9.477366E2,7.766572E2,3.8400903E2,3.1214648E2,5.446665E2,3.1334113E2,1.2541113E3,5.941681E2,2.9939465E2,2.587694E2,7.432311E2,7.46989E2,3.7244434E2,6.44539E2,7.837234E2,4.1499658E2,0E0,3.193154E2,2.767329E2,4.6059402E2,5.494877E2,5.3986053E2,1.0691718E3,3.5842493E2,3.4351535E2,2.7250232E2,2.7316516E2,0E0,2.190791E2,3.039712E2,2.283086E2,1.760166E2,0E0,9.09035E1,8.0662735E1,0E0,0E0,2.5221039E2,0E0,0E0,0E0,0E0,0E0,0E0,0E0,0E0,0E0,0E0,0E0,0E0,0E0,0E0,0E0,0E0,0E0,0E0,0E0,0E0,0E0,0E0,0E0,0E0,0E0,0E0,0E0,0E0,0E0,0E0,0E0,0E0,0E0,0E0,0E0,0E0,0E0,0E0,0E0,0E0,0E0,0E0,0E0,0E0,0E0,0E0,0E0,0E0,0E0,0E0,0E0,0E0,0E0,0E0,0E0,0E0,0E0,0E0,0E0,0E0,0E0,0E0,0E0,0E0,0E0,0E0,0E0,0E0,0E0,0E0,0E0,0E0,0E0,0E0,0E0,0E0,0E0,0E0,0E0,0E0,0E0,0E0,0E0,0E0,0E0,0E0,0E0,0E0,0E0,0E0,0E0,0E0,0E0,0E0,0E0,0E0,0E0,0E0],"parents":[2147483647,0,0,1,1,2,2,3,3,4,4,5,5,6,6,7,7,8,8,9,9,10,10,11,11,12,12,13,13,14,14,15,15,16,16,17,17,18,18,19,19,20,20,21,21,22,22,23,23,24,24,25,25,26,26,27,27,28,28,29,29,30,30,31,31,32,32,33,33,34,34,36,36,37,37,38,38,39,39,40,40,41,41,43,43,44,44,45,45,46,46,47,47,48,48,49,49,50,50,51,51,52,52,53,53,54,54,55,55,56,56,57,57,58,58,59,59,61,61,62,62,63,63,64,64,65,65,67,67,68,68,69,69,70,70,71,71,73,73,74,74,75,75,77,77,78,78,79,79,80,80,81,81,83,83,84,84,85,85,86,86,87,87,88,88,89,89,90,90,91,91,92,92,93,93,94,94,95,95,96,96,97,97,98,98,100,100,101,101,102,102,103,103,104,104,105,105,106,106,107,107,108,108,109,109,111,111,112,112,113,113,114,114,116,116,117,117,120,120],"right_children":[2,4,6,8,10,12,14,16,18,20,22,24,26,28,30,32,34,36,38,40,42,44,46,48,50,52,54,56,58,60,62,64,66,68,70,-1,72,74,76,78,80,82,-1,84,86,88,90,92,94,96,98,100,102,104,106,108,110,112,114,116,-1,118,120,122,124,126,-1,128,130,132,134,136,-1,138,140,142,-1,144,146,148,150,152,-1,154,156,158,160,162,164,166,168,170,172,174,176,178,180,182,184,-1,186,188,190,192,194,196,198,200,202,204,-1,206,208,210,212,-1,214,216,-1,-1,218,-1,-1,-1,-1,-1,-1,-1,-1,-1,-1,-1,-1,-1,-1,-1,-1,-1,-1,-1,-1,-1,-1,-1,-1,-1,-1,-1,-1,-1,-1,-1,-1,-1,-1,-1,-1,-1,-1,-1,-1,-1,-1,-1,-1,-1,-1,-1,-1,-1,-1,-1,-1,-1,-1,-1,-1,-1,-1,-1,-1,-1,-1,-1,-1,-1,-1,-1,-1,-1,-1,-1,-1,-1,-1,-1,-1,-1,-1,-1,-1,-1,-1,-1,-1,-1,-1,-1,-1,-1,-1,-1,-1,-1,-1,-1,-1,-1,-1],"split_conditions":[-4.9384564E-1,-8.496934E-1,6.1170083E-1,1.6262296E-1,4.04732E5,1.09889E6,5.896966E6,2.69E2,-2.3559043E0,1.4025139E0,1.332051E6,-3.81531E5,-2.2959952E-1,4.61E2,-2.6864892E-1,1.1703103E7,-9.0456426E-1,5.68E2,3.3687916E0,-1.3737582E0,5.05E2,1.127068E6,5.75E2,-1.6827846E-1,-2.5505573E-1,1.279625E6,4.510865E6,1.9467566E0,1.5316347E0,2.577E3,6.307037E6,1.8241577E0,5E0,1.1046737E0,1.09889E6,-2.9223564E-3,3.255917E6,1.574E3,3.51041E5,4.84E2,2.194E3,1.5E2,-2.823729E-3,1.1823375E0,1E1,-5.715455E-1,-8.0877733E-1,4.2E1,-2.2399549E-1,1.70151E5,3.632821E-1,-3.492846E-1,2.397E3,-2.0542309E-1,-1.9591713E-1,-1.0632888E1,4.6599746E-1,3.12934E5,3.3808E5,1.3E1,-2.7461338E-3,-1.4041587E1,-2.1882263E1,-8.818576E-1,6E0,8E0,-2.8636733E-3,1.3E1,4.78E2,2E0,3.707585E6,1.143E3,-2.881775E-3,2.866982E6,1.3202701E1,4.84E2,-2.8872981E-3,1.9E1,1E0,-6.7701954E-1,1.8451E4,2.454E3,-2.6767214E-3,-3.407228E-1,8.47509E5,2.251118E0,2E0,-5.241089E-1,-8.389217E-1,2.728915E6,2.913772E0,-4.12149E-1,7.46175E-1,-2.0249527E0,-1.9430059E-1,3.1E1,1.69E2,-2.8075564E-1,1.237E3,-2.9103565E-3,1.54E2,2.8010464E-1,2.661E3,6.345004E-1,-6.9428325E-2,1.012E3,5.663198E-1,3.58E2,3.497E3,-1.9635734E7,-2.858984E-3,7.3E1,-1.4246019E0,3.269E3,1.181E3,-2.689341E-3,1.1347353E0,6E0,-2.9027865E-3,-2.8660644E-3,1.82E2,-2.9149463E-3,-1.2636497E-3,-2.2831922E-3,-1.1814097E-3,-2.7913142E-3,4.1191076E-4,-1.3897038E-3,-2.9285238E-3,-2.4346744E-3,-8.015233E-4,-2.5045977E-3,-1.3439363E-3,-2.9358494E-3,-1.8446705E-3,5.6992704E-4,-1.7085426E-3,-2.069785E-3,-8.788316E-4,-2.830078E-3,1.2210378E-3,9.0305856E-4,-2.7934099E-3,-4.8761145E-4,-2.0619635E-3,-3.5245644E-4,5.6643493E-4,-9.028222E-4,-4.98813E-4,-4.3689992E-4,9.5751777E-4,-2.6274095E-3,1.1922192E-3,-1.8910699E-3,-3.717905E-4,-2.0957557E-3,-7.488094E-4,-2.3269476E-3,-8.393483E-4,1.4203928E-4,-2.717173E-3,-7.725124E-4,-1.5689328E-3,-2.848254E-3,-3.3155433E-4,-2.6593308E-3,-6.565638E-4,-5.372458E-4,1.984211E-4,-6.222931E-4,-2.0197313E-3,-7.4150495E-4,-2.6381592E-4,-2.046425E-3,3.0541082E-4,-1.4528355E-3,-1.4471354E-4,3.2643284E-4,-2.8178878E-3,-2.8859875E-3,-6.158471E-5,4.1271388E-4,-1.3678642E-5,6.413739E-4,2.8604276E-5,-2.840263E-3,4.4137763E-5,1.0782728E-4,4.8413206E-4,-2.891386E-3,-2.5543515E-4,-6.4512546E-4,-2.90341E-3,1.6787773E-4,-2.4505833E-4,-4.0685674E-4,-1.6969027E-3,-2.4107356E-4,-1.106568E-3,1.3003714E-4,-2.880924E-3,1.3106773E-4,-2.793454E-3,8.9768466E-4,3.7220793E-4,-2.6849248E-3,7.5640547E-4,-2.7799609E-3,4.5614716E-4,9.864956E-4,-2.6642433E-3,8.1216515E-4,5.483403E-4,3.0276904E-4,7.020199E-4,-2.2332615E-3,1.4090022E-3,-2.110088E-4,2.3134373E-4],"split_indices":[2,2,2,11,15,15,15,13,10,11,15,15,11,15,11,15,2,12,1,10,12,15,12,2,2,15,15,2,2,12,15,10,9,10,15,0,15,13,15,12,13,13,0,10,7,2,2,13,11,15,1,2,12,11,2,14,11,15,15,13,0,14,14,1,9,7,0,7,13,9,15,12,0,15,10,12,0,7,25,2,15,15,0,11,15,14,13,14,1,15,10,2,10,14,11,7,12,1,12,0,13,2,13,14,14,12,11,12,12,15,0,12,11,12,12,0,2,9,0,0,13,0,0,0,0,0,0,0,0,0,0,0,0,0,0,0,0,0,0,0,0,0,0,0,0,0,0,0,0,0,0,0,0,0,0,0,0,0,0,0,0,0,0,0,0,0,0,0,0,0,0,0,0,0,0,0,0,0,0,0,0,0,0,0,0,0,0,0,0,0,0,0,0,0,0,0,0,0,0,0,0,0,0,0,0,0,0,0,0,0,0,0,0,0,0,0,0,0,0],"split_type":[0,0,0,0,0,0,0,0,0,0,0,0,0,0,0,0,0,0,0,0,0,0,0,0,0,0,0,0,0,0,0,0,0,0,0,0,0,0,0,0,0,0,0,0,0,0,0,0,0,0,0,0,0,0,0,0,0,0,0,0,0,0,0,0,0,0,0,0,0,0,0,0,0,0,0,0,0,0,0,0,0,0,0,0,0,0,0,0,0,0,0,0,0,0,0,0,0,0,0,0,0,0,0,0,0,0,0,0,0,0,0,0,0,0,0,0,0,0,0,0,0,0,0,0,0,0,0,0,0,0,0,0,0,0,0,0,0,0,0,0,0,0,0,0,0,0,0,0,0,0,0,0,0,0,0,0,0,0,0,0,0,0,0,0,0,0,0,0,0,0,0,0,0,0,0,0,0,0,0,0,0,0,0,0,0,0,0,0,0,0,0,0,0,0,0,0,0,0,0,0,0,0,0,0,0,0,0,0,0,0,0,0,0,0,0,0,0,0,0],"sum_hessian":[2.622953E5,6.758587E4,1.9470944E5,1.554175E4,5.204412E4,1.0987929E5,8.483015E4,1.1515239E4,4.0265107E3,2.5605398E4,2.643872E4,7.487145E4,3.5007832E4,7.66091E4,8.221042E3,6.2163945E3,5.298844E3,1.6854379E3,2.341073E3,2.4529787E4,1.0756115E3,9.642501E3,1.679622E4,1.6471188E4,5.8400266E4,1.1265073E4,2.3742758E4,1.1637211E4,6.4971895E4,2.708039E3,5.5130034E3,5.664213E3,5.521815E2,2.144331E3,3.1545134E3,2.5445393E2,1.4309839E3,1.8511407E3,4.899322E2,4.891635E3,1.9638152E4,1.0363622E3,3.9249233E1,6.447051E3,3.1954507E3,5.064759E3,1.1731461E4,5.430068E3,1.104112E4,1.6060038E4,4.234023E4,4.3937152E2,1.0825702E4,1.3801853E4,9.940905E3,7.5646885E3,4.0725227E3,3.341738E4,3.1554516E4,2.6849448E3,2.3094244E1,1.6587296E2,5.3471304E3,3.8720842E3,1.7921287E3,4.9183752E2,6.034402E1,7.333955E2,1.4109354E3,1.2510913E3,1.9034221E3,1.3504305E3,8.0553375E1,1.6947588E3,1.5638203E2,4.0175623E2,8.817597E1,1.0498314E3,3.8418032E3,1.8617998E4,1.02015485E3,1.0195433E3,1.6818907E1,4.527424E3,1.919627E3,1.0094598E3,2.185991E3,3.8296077E3,1.2351512E3,1.5315342E3,1.0199927E4,6.473876E2,4.7826807E3,5.8457964E3,5.1953237E3,9.088441E3,6.9715967E3,2.6785217E4,1.5555013E4,1.5662486E2,2.8274667E2,1.0472749E4,3.529524E2,1.103261E3,1.2698592E4,3.3935247E3,6.5473804E3,1.4931076E2,7.415378E3,4.0164524E3,5.6070316E1,1.7134545E4,1.6282832E4,1.6643514E4,1.4911003E4,1.7481482E1,2.6674634E3,5.940957E1,1.0646338E2,5.850155E1,5.288629E3,1.830989E2,3.6889854E3,1.4525403E3,3.3958832E2,3.0959393E1,4.608781E2,3.847574E2,3.4863815E2,2.4252866E2,1.1684067E3,2.815713E2,9.6952E2,1.3584531E3,5.4496893E2,1.2514824E3,9.894807E1,1.2325696E3,4.621892E2,4.2634598E1,1.1374744E2,3.7034833E2,3.1407902E1,7.757026E2,2.7412894E2,1.6065492E3,2.2352542E3,8.983169E3,9.634829E3,3.80228E2,6.399268E2,1.4136269E1,1.005407E3,4.5562506E2,4.0717986E3,1.2681486E3,6.514784E2,7.8211523E2,2.2734454E2,3.838746E1,2.1476035E3,1.3163956E3,2.513212E3,5.0248585E1,1.1849026E3,4.3779153E2,1.0937427E3,8.95046E3,1.249467E3,2.567997E2,3.905879E2,2.9178904E3,1.8647902E3,1.3608038E2,5.709716E3,4.7981656E2,4.7155073E3,9.05213E3,3.6311527E1,8.026935E1,6.8913276E3,2.1389594E4,5.3956226E3,1.4355598E4,1.1994142E3,4.4156555E1,2.385901E2,7.8714546E3,2.6012944E3,8.720993E1,2.6574246E2,9.8326025E2,1.2000069E2,5.999522E3,6.69907E3,2.5327395E3,8.6078516E2,6.0284375E3,5.1894275E2,7.713194E1,7.2178825E1,7.38489E3,3.048762E1,1.7943181E3,2.222134E3,1.7027298E1,1.7117518E4,2.756385E1,1.6255268E4,1.662783E4,1.5682679E1,1.1644436E4,3.266567E3,8.418633E2,1.8256E3,5.378619E0,5.4030952E1,2.2188757E3,3.069753E3],"tree_param":{"num_deleted":"0","num_feature":"26","num_nodes":"219","size_leaf_vector":"1"}},{"base_weights":[2.5189376E-2,-7.5122863E-1,3.925833E-1,-1.1374294E0,-4.7109598E-1,6.215367E-1,1.6554078E-1,-1.4487665E0,-7.5871134E-1,-1.34503E0,-3.8189808E-1,4.9290007E-1,7.726778E-1,2.1167554E-1,-7.767167E-3,-1.2356203E0,-1.8437912E0,-1.3132051E0,-4.5351943E-1,-2.6718232E-1,-1.6399294E0,-4.629282E-2,-4.647147E-1,4.631989E-1,7.6697755E-1,8.1686383E-1,5.4642016E-1,1.8480198E-1,5.900375E-1,-2.4514924E-1,2.3709868E-1,-1.0649061E0,-2.0332325E0,-2.2081885E0,-1.1136706E0,-2.1493952E0,-1.0103713E0,-3.041446E-1,-1.5271223E0,-4.5468066E-2,-2.8810112E-3,-2.2612844E0,-1.1409092E0,-4.5334706E-1,3.0052325E-1,-6.0286605E-1,-2.1144971E-1,5.7453555E-1,3.2106128E-1,5.980464E-1,1.1845639E0,9.47807E-1,7.781734E-1,4.7262186E-1,9.4778E-1,3.3169904E-1,1.03733405E-1,2.358118E-1,1.0470392E0,1.3085078E-1,-4.2054576E-1,2.7016774E-1,-2.0220156E0,-1.2272823E0,-1.9394518E-1,-1.5523232E0,-2.3830397E0,-2.4002688E0,-1.9371004E0,-4.170994E-1,-1.6934246E0,-2.4005828E0,-2.4322273E-1,-1.211161E0,-8.900907E-2,-2.1139073E-1,-2.121289E0,-1.9897417E0,2.6817912E-1,-6.255863E-1,4.3857193E-1,-1.5207886E0,-2.801427E0,-1.424902E0,2.5828078E-1,4.928455E-1,-8.2377183E-1,-3.3586723E-1,6.955844E-1,-2.2472732E0,-5.775715E-1,-8.853814E-1,-1.5070903E-1,2.1352595E-1,6.113303E-1,3.8971618E-1,3.2370567E-2,6.194933E-1,-2.7223171E-3,1.201742E0,-2.255895E-3,5.815538E-1,1.0126697E0,7.5435555E-1,1.0435869E0,4.8865902E-1,-2.7738865E-3,9.7742E-1,-2.4227512E-3,2.5471926E-1,7.593737E-1,5.356723E-3,3.161767E-1,-2.825361E-3,2.8298184E-1,-2.3492621E-3,1.0601504E0,-2.7808447E-3,1.5934205E-1,1.4888496E-2,-5.970057E-1,5.235573E-1,2.6902078E-2,8.4265625E-1,-2.8972377E-3,-2.301453E-3,-1.1267549E-3,-7.675145E-4,9.4493275E-4,6.200836E-4,-1.8100684E-3,-2.4647014E-3,1.1866373E-3,-2.5098992E-3,-5.6966726E-4,-2.2128364E-3,-1.9249512E-4,-1.8063558E-3,-5.5286884E-5,-2.2472518E-3,-9.883617E-4,-2.5468431E-3,-7.190436E-4,-2.789925E-3,3.3124496E-4,-1.3704468E-3,-2.6359203E-5,1.0619822E-3,-8.423204E-4,-3.6084122E-4,8.5609785E-4,-5.9037114E-4,-2.5758792E-3,-7.783762E-4,-2.4447325E-3,1.0995994E-3,-2.8511186E-3,-2.8954418E-3,9.156644E-5,-2.5833084E-3,5.2366423E-4,-4.9937447E-4,-2.0982148E-3,-2.930771E-3,5.09173E-4,-2.0648509E-3,-9.700446E-4,8.185981E-4,-1.4524575E-3,-8.578207E-4,9.4593986E-4,-1.1198978E-3,3.978026E-4,-2.8531547E-3,-2.580376E-4,7.736212E-4,-1.6444813E-3,-6.004924E-5,-2.9236123E-3,-8.1877556E-4,-4.0600114E-4,-6.664598E-4,-2.89554E-3,5.777253E-4,-2.0315022E-4,-1.767375E-3,3.0991697E-4,8.196242E-4,5.455782E-4,4.282208E-4,-3.0418407E-4,5.5084798E-5,-2.779315E-3,6.3780375E-4,-2.6825054E-3,-2.0225388E-3,1.2135062E-3,6.575744E-4,-2.7642946E-3,-2.555658E-3,1.0192373E-3,1.0395953E-3,7.3483924E-4,-2.569283E-3,1.0646709E-3,5.134463E-4,-7.529269E-4,1.0023277E-3,-2.3358383E-3,3.6038252E-4,-9.371697E-6,8.457065E-4,-4.4963806E-4,-2.996054E-4,1.05020044E-4,-3.172912E-4,4.1410883E-4,2.7137809E-5,6.8518706E-4,1.0733466E-3,-2.3482665E-3,4.6487982E-4,-8.9869274E-5,2.3909734E-4,-9.4173546E-4,-1.0768913E-3,-3.4735008E-4,2.6497472E-4,9.727061E-4,4.7824607E-4,-1.8447808E-4,1.2807742E-3,-1.9349887E-3],"categories":[],"categories_nodes":[],"categories_segments":[],"categories_sizes":[],"default_left":[0,0,0,0,0,0,0,0,0,0,0,0,0,0,0,0,0,0,0,0,0,0,0,0,0,0,0,0,0,0,0,0,0,0,0,0,0,0,0,0,0,0,0,0,1,0,0,0,0,0,0,0,0,0,0,0,0,0,0,0,0,0,0,0,0,0,0,0,0,0,0,0,0,0,0,0,0,0,0,0,0,0,0,0,0,0,0,0,0,0,0,0,0,0,0,0,0,0,0,0,0,0,0,0,0,0,0,0,0,0,0,0,0,0,0,0,0,0,0,0,0,0,0,0,0,0,0,0,0,0,0,0,0,0,0,0,0,0,0,0,0,0,0,0,0,0,0,0,0,0,0,0,0,0,0,0,0,0,0,0,0,0,0,0,0,0,0,0,0,0,0,0,0,0,0,0,0,0,0,0,0,0,0,0,0,0,0,0,0,0,0,0,0,0,0,0,0,0,0,0,0,0,0,0,0,0,0,0,0,0,0,0,0,0,0,0,0,0,0,0,0,0,0,0,0,0,0,0,0,0,0,0,0],"id":3,"left_children":[1,3,5,7,9,11,13,15,17,19,21,23,25,27,29,31,33,35,37,39,41,43,45,47,49,51,53,55,57,59,61,63,65,67,69,71,73,75,77,79,-1,81,83,85,87,89,91,93,95,97,99,101,103,105,107,109,111,113,115,117,119,121,123,125,127,129,131,133,135,137,139,141,143,145,147,149,151,153,155,157,159,161,163,165,167,169,171,173,175,177,179,181,183,185,187,189,191,193,-1,195,-1,197,199,201,203,205,-1,207,-1,209,211,213,215,-1,217,-1,219,-1,221,223,225,227,229,231,-1,-1,-1,-1,-1,-1,-1,-1,-1,-1,-1,-1,-1,-1,-1,-1,-1,-1,-1,-1,-1,-1,-1,-1,-1,-1,-1,-1,-1,-1,-1,-1,-1,-1,-1,-1,-1,-1,-1,-1,-1,-1,-1,-1,-1,-1,-1,-1,-1,-1,-1,-1,-1,-1,-1,-1,-1,-1,-1,-1,-1,-1,-1,-1,-1,-1,-1,-1,-1,-1,-1,-1,-1,-1,-1,-1,-1,-1,-1,-1,-1,-1,-1,-1,-1,-1,-1,-1,-1,-1,-1,-1,-1,-1,-1,-1,-1,-1,-1,-1,-1,-1,-1,-1,-1,-1,-1,-1,-1],"loss_changes":[7.5293484E4,9.170785E3,9.313252E3,4.199707E3,3.8291719E3,1.7332344E3,7.1942236E2,1.6418281E3,2.7201572E3,1.4446631E3,1.2391401E3,3.9120898E2,4.0866797E2,7.21916E2,1.0994464E3,1.7257324E3,1.8173359E3,1.4407559E3,1.6625898E3,5.660555E2,1.1019824E3,1.2467183E3,1.2508223E3,6.875342E2,3.3020312E2,1.7183789E2,1.9728113E2,7.898152E2,7.614607E2,6.3367236E2,6.954269E2,1.4799521E3,3.690459E2,2.287168E2,9.203855E2,7.2367676E2,7.751128E2,1.5339814E3,1.0537131E3,2.5455284E2,0E0,6.270034E2,7.896826E2,1.4248597E3,1.1991583E3,9.591533E2,5.1618353E2,3.2329395E2,3.7850452E2,2.4048169E2,8.3549805E1,1.8397314E2,1.6540039E2,2.960708E2,1.06644226E2,7.7585815E2,8.9341223E2,3.83435E2,9.46272E1,2.5283673E2,5.0366162E2,5.6536694E2,3.413238E2,9.4744824E2,1.0774169E3,5.3280566E2,3.817832E2,5.314033E2,9.1371436E2,5.2167816E2,4.8152075E2,3.2496094E2,2.636349E2,6.4904346E2,6.5372675E2,1.3836396E3,3.038109E2,5.508684E2,6.797636E2,6.734595E2,1.2792753E2,3.9457263E2,3.9595264E2,4.7581763E2,3.2334894E2,7.01177E2,1.0576339E3,3.5520163E2,5.3880383E2,5.1561426E2,9.4210645E2,4.5431732E2,4.4256772E2,4.3142398E2,3.0169043E2,4.126792E2,2.3352649E2,2.032478E2,0E0,5.4414795E1,0E0,3.0192847E2,1.586543E2,1.333457E2,1.691084E2,1.7412744E2,0E0,8.79552E1,0E0,5.581437E2,3.76187E2,8.882463E2,8.3966016E2,0E0,2.6892682E2,0E0,9.529761E1,0E0,2.3077744E2,4.0532684E2,5.5734155E2,5.209082E2,4.4720367E2,4.287948E1,0E0,0E0,0E0,0E0,0E0,0E0,0E0,0E0,0E0,0E0,0E0,0E0,0E0,0E0,0E0,0E0,0E0,0E0,0E0,0E0,0E0,0E0,0E0,0E0,0E0,0E0,0E0,0E0,0E0,0E0,0E0,0E0,0E0,0E0,0E0,0E0,0E0,0E0,0E0,0E0,0E0,0E0,0E0,0E0,0E0,0E0,0E0,0E0,0E0,0E0,0E0,0E0,0E0,0E0,0E0,0E0,0E0,0E0,0E0,0E0,0E0,0E0,0E0,0E0,0E0,0E0,0E0,0E0,0E0,0E0,0E0,0E0,0E0,0E0,0E0,0E0,0E0,0E0,0E0,0E0,0E0,0E0,0E0,0E0,0E0,0E0,0E0,0E0,0E0,0E0,0E0,0E0,0E0,0E0,0E0,0E0,0E0,0E0,0E0,0E0,0E0,0E0,0E0,0E0,0E0,0E0,0E0,0E0,0E0],"parents":[2147483647,0,0,1,1,2,2,3,3,4,4,5,5,6,6,7,7,8,8,9,9,10,10,11,11,12,12,13,13,14,14,15,15,16,16,17,17,18,18,19,19,20,20,21,21,22,22,23,23,24,24,25,25,26,26,27,27,28,28,29,29,30,30,31,31,32,32,33,33,34,34,35,35,36,36,37,37,38,38,39,39,41,41,42,42,43,43,44,44,45,45,46,46,47,47,48,48,49,49,50,50,51,51,52,52,53,53,54,54,55,55,56,56,57,57,58,58,59,59,60,60,61,61,62,62,63,63,64,64,65,65,66,66,67,67,68,68,69,69,70,70,71,71,72,72,73,73,74,74,75,75,76,76,77,77,78,78,79,79,80,80,81,81,82,82,83,83,84,84,85,85,86,86,87,87,88,88,89,89,90,90,91,91,92,92,93,93,94,94,95,95,96,96,97,97,99,99,101,101,102,102,103,103,104,104,105,105,107,107,109,109,110,110,111,111,112,112,114,114,116,116,118,118,119,119,120,120,121,121,122,122,123,123],"right_children":[2,4,6,8,10,12,14,16,18,20,22,24,26,28,30,32,34,36,38,40,42,44,46,48,50,52,54,56,58,60,62,64,66,68,70,72,74,76,78,80,-1,82,84,86,88,90,92,94,96,98,100,102,104,106,108,110,112,114,116,118,120,122,124,126,128,130,132,134,136,138,140,142,144,146,148,150,152,154,156,158,160,162,164,166,168,170,172,174,176,178,180,182,184,186,188,190,192,194,-1,196,-1,198,200,202,204,206,-1,208,-1,210,212,214,216,-1,218,-1,220,-1,222,224,226,228,230,232,-1,-1,-1,-1,-1,-1,-1,-1,-1,-1,-1,-1,-1,-1,-1,-1,-1,-1,-1,-1,-1,-1,-1,-1,-1,-1,-1,-1,-1,-1,-1,-1,-1,-1,-1,-1,-1,-1,-1,-1,-1,-1,-1,-1,-1,-1,-1,-1,-1,-1,-1,-1,-1,-1,-1,-1,-1,-1,-1,-1,-1,-1,-1,-1,-1,-1,-1,-1,-1,-1,-1,-1,-1,-1,-1,-1,-1,-1,-1,-1,-1,-1,-1,-1,-1,-1,-1,-1,-1,-1,-1,-1,-1,-1,-1,-1,-1,-1,-1,-1,-1,-1,-1,-1,-1,-1,-1,-1,-1],"split_conditions":[-3.6364585E-1,-7.129904E-1,-1.9336064E0,6.002E3,1.0466596E0,1.5316347E0,1.169E3,1.6607629E0,2.792068E0,7.764812E-1,-9.88053E-1,9.311E3,1.237E3,3.3687916E0,1.766E3,4.573E3,3.598E3,-8.650708E-1,1.155E3,1.6607629E0,-5.258198E-1,7.12E2,-4.99265E-1,4.165E3,3.3687916E0,1.241E3,3.9364016E0,2.39E3,9.153E3,-7.929402E-1,1E0,3.5990787E0,2.4554906E0,-8.572127E-1,4.412E3,9.787E3,1.808E3,9.581E3,9.685E3,7.6165E-1,-2.8810112E-3,9.959624E-1,5.59562E0,1.689E3,1E0,-8.4703916E-1,-4.615916E-1,5.93E2,1.119E3,1.4844186E0,7.85E2,5.01E2,3.3687916E0,9.721E3,3.096E3,2.178E3,7.71E2,-3.1343913E-1,1.48E2,-8.818576E-1,-4.954349E-1,4.297E3,2E0,5.17E2,2.242E3,-1.7917962E0,4.367E3,1E0,3.4990942E0,2.75742E0,-8.456966E-1,1E0,8E0,9.721E3,6.512E3,9.522E3,2.9645355E0,7.185E3,3.097901E0,7.2E2,-4.954349E-1,2.375E3,9.914E3,1E0,-1.2300273E0,9.87E2,2.7216754E0,1.125E3,9.017E3,-3.0818415E0,3.683E3,8.3E3,-1.2708914E-1,-4.4247837E0,6.09E2,9.017E3,4.367E3,1E0,-2.7223171E-3,1.59E2,-2.255895E-3,1.1E1,-8.389217E-1,-2.0610626E1,1.24E2,1E0,-2.7738865E-3,3.3687916E0,-2.4227512E-3,1.183E3,-2.8075564E-1,-1.6827846E-1,3.638E3,-2.825361E-3,2.518563E-1,-2.3492621E-3,6.13E2,-2.7808447E-3,1.32E3,5.006E3,2.207E3,3.598E3,-4.366961E-1,1.851E3,-2.8972377E-3,-2.301453E-3,-1.1267549E-3,-7.675145E-4,9.4493275E-4,6.200836E-4,-1.8100684E-3,-2.4647014E-3,1.1866373E-3,-2.5098992E-3,-5.6966726E-4,-2.2128364E-3,-1.9249512E-4,-1.8063558E-3,-5.5286884E-5,-2.2472518E-3,-9.883617E-4,-2.5468431E-3,-7.190436E-4,-2.789925E-3,3.3124496E-4,-1.3704468E-3,-2.6359203E-5,1.0619822E-3,-8.423204E-4,-3.6084122E-4,8.5609785E-4,-5.9037114E-4,-2.5758792E-3,-7.783762E-4,-2.4447325E-3,1.0995994E-3,-2.8511186E-3,-2.8954418E-3,9.156644E-5,-2.5833084E-3,5.2366423E-4,-4.9937447E-4,-2.0982148E-3,-2.930771E-3,5.09173E-4,-2.0648509E-3,-9.700446E-4,8.185981E-4,-1.4524575E-3,-8.578207E-4,9.4593986E-4,-1.1198978E-3,3.978026E-4,-2.8531547E-3,-2.580376E-4,7.736212E-4,-1.6444813E-3,-6.004924E-5,-2.9236123E-3,-8.1877556E-4,-4.0600114E-4,-6.664598E-4,-2.89554E-3,5.777253E-4,-2.0315022E-4,-1.767375E-3,3.0991697E-4,8.196242E-4,5.455782E-4,4.282208E-4,-3.0418407E-4,5.5084798E-5,-2.779315E-3,6.3780375E-4,-2.6825054E-3,-2.0225388E-3,1.2135062E-3,6.575744E-4,-2.7642946E-3,-2.555658E-3,1.0192373E-3,1.0395953E-3,7.3483924E-4,-2.569283E-3,1.0646709E-3,5.134463E-4,-7.529269E-4,1.0023277E-3,-2.3358383E-3,3.6038252E-4,-9.371697E-6,8.457065E-4,-4.4963806E-4,-2.996054E-4,1.05020044E-4,-3.172912E-4,4.1410883E-4,2.7137809E-5,6.8518706E-4,1.0733466E-3,-2.3482665E-3,4.6487982E-4,-8.9869274E-5,2.3909734E-4,-9.4173546E-4,-1.0768913E-3,-3.4735008E-4,2.6497472E-4,9.727061E-4,4.7824607E-4,-1.8447808E-4,1.2807742E-3,-1.9349887E-3],"split_indices":[2,2,16,4,16,2,12,10,16,16,10,4,12,1,12,4,4,2,12,10,2,12,2,4,1,4,2,4,4,16,24,16,16,2,4,4,12,4,4,10,0,16,10,4,25,10,10,4,12,2,12,12,1,4,12,4,12,14,12,1,1,4,8,4,12,14,12,21,16,10,2,23,8,4,4,4,16,4,16,12,1,4,4,25,14,4,16,4,4,14,4,4,10,14,4,4,12,23,0,12,0,8,1,16,12,21,0,1,0,4,1,2,4,0,2,0,12,0,12,4,4,4,10,12,0,0,0,0,0,0,0,0,0,0,0,0,0,0,0,0,0,0,0,0,0,0,0,0,0,0,0,0,0,0,0,0,0,0,0,0,0,0,0,0,0,0,0,0,0,0,0,0,0,0,0,0,0,0,0,0,0,0,0,0,0,0,0,0,0,0,0,0,0,0,0,0,0,0,0,0,0,0,0,0,0,0,0,0,0,0,0,0,0,0,0,0,0,0,0,0,0,0,0,0,0,0,0,0,0,0,0,0,0],"split_type":[0,0,0,0,0,0,0,0,0,0,0,0,0,0,0,0,0,0,0,0,0,0,0,0,0,0,0,0,0,0,0,0,0,0,0,0,0,0,0,0,0,0,0,0,0,0,0,0,0,0,0,0,0,0,0,0,0,0,0,0,0,0,0,0,0,0,0,0,0,0,0,0,0,0,0,0,0,0,0,0,0,0,0,0,0,0,0,0,0,0,0,0,0,0,0,0,0,0,0,0,0,0,0,0,0,0,0,0,0,0,0,0,0,0,0,0,0,0,0,0,0,0,0,0,0,0,0,0,0,0,0,0,0,0,0,0,0,0,0,0,0,0,0,0,0,0,0,0,0,0,0,0,0,0,0,0,0,0,0,0,0,0,0,0,0,0,0,0,0,0,0,0,0,0,0,0,0,0,0,0,0,0,0,0,0,0,0,0,0,0,0,0,0,0,0,0,0,0,0,0,0,0,0,0,0,0,0,0,0,0,0,0,0,0,0,0,0,0,0,0,0,0,0,0,0,0,0,0,0,0,0,0,0],"sum_hessian":[2.639525E5,8.478096E4,1.7917155E5,3.5640016E4,4.9140945E4,8.920798E4,8.996358E4,1.9557004E4,1.608301E4,4.548584E3,4.4592363E4,4.819703E4,4.1010945E4,7.105201E4,1.8911566E4,1.2707691E4,6.849314E3,5.7071934E3,1.0375816E4,9.781249E2,3.5704592E3,8.827652E3,3.576471E4,4.3489977E4,4.7070527E3,3.4305305E4,6.705638E3,6.634345E4,4.7085586E3,9.603559E3,9.308008E3,1.0470749E4,2.2369421E3,4.566492E3,2.2828215E3,1.5145083E3,4.192685E3,9.110609E3,1.2652064E3,9.032273E2,7.489757E1,1.5874933E3,1.982966E3,4.0615898E3,4.7660625E3,2.3138852E4,1.2625858E4,2.4382799E4,1.9107178E4,3.3547583E3,1.3522944E3,7.813443E3,2.6491863E4,5.667976E3,1.0376621E3,2.3589053E4,4.27544E4,2.6544446E3,2.054114E3,3.0540588E3,6.5494995E3,9.175241E3,1.3276582E2,8.824398E3,1.6463506E3,9.4599255E2,1.2909495E3,2.6647505E3,1.9017417E3,1.0385049E3,1.2443165E3,1.3375944E3,1.7691399E2,3.4416433E3,7.510417E2,8.67001E3,4.4060013E2,1.00607385E3,2.5913254E2,4.1110977E2,4.9211755E2,6.723709E2,9.151224E2,1.6486667E3,3.342992E2,1.1421921E3,2.9193977E3,1.8250734E3,2.9409893E3,3.4823834E2,2.2790613E4,1.0415066E3,1.1584353E4,2.2574756E3,2.2125324E4,1.54343955E4,3.6727817E3,3.3345903E3,2.0168007E1,1.3466918E3,5.602662E0,1.1789655E3,6.634477E3,2.4317305E4,2.1745576E3,5.641536E3,2.6439945E1,1.0298195E3,7.842728E0,1.9993807E4,3.5952449E3,2.9224994E4,1.3529404E4,3.8780476E1,2.615664E3,6.7248397E0,2.0473892E3,2.8020506E1,3.0260383E3,1.8883441E3,4.6611553E3,4.4922524E3,4.6829893E3,3.0949656E1,1.0181616E2,7.519313E2,8.0724673E3,1.0955371E3,5.5081354E2,9.99038E1,8.4608875E2,1.2626685E3,2.8281048E1,2.5133994E3,1.5135112E2,1.641597E3,2.6014465E2,2.1305687E2,8.25448E2,6.9466595E2,5.496506E2,1.2295765E3,1.0801785E2,3.1657417E1,1.4525656E2,3.0332007E3,4.084427E2,2.9659424E2,4.5444745E2,7.6065405E3,1.0634692E3,1.01918434E2,3.3868167E2,2.76114E2,7.2995984E2,2.0549203E2,5.3640503E1,9.7777115E1,3.1333264E2,1.2110853E1,4.800067E2,2.441518E2,4.282191E2,8.810242E2,3.4098186E1,6.8230646E2,9.663603E2,2.5262994E2,8.166925E1,2.8629837E2,8.558938E2,2.35021E3,5.6918787E2,5.29386E1,1.7721348E3,2.8472563E3,9.373276E1,8.281004E1,2.654283E2,9.469393E3,1.332122E4,9.41244E2,1.00262634E2,7.7631976E2,1.0808032E4,1.0330462E2,2.154171E3,5.3025977E3,1.6822727E4,1.4624192E4,8.102032E2,3.6449841E3,2.7797598E1,3.3175552E3,1.7035034E1,3.8090785E0,1.3428827E3,1.154098E3,2.4867462E1,1.0978936E1,6.623498E3,1.5506017E3,2.2766703E4,1.1427186E1,2.1631304E3,5.532369E3,1.0916682E2,1.02332367E3,6.4957695E0,1.4281215E4,5.7125923E3,3.356434E3,2.3881087E2,7.196434E3,2.202856E4,1.81041E3,1.1718994E4,1.6004541E3,1.01520984E3,2.0406628E3,6.7263412E0,1.3597129E3,1.6663254E3,1.5311324E3,3.5721158E2,1.5927037E3,3.0684517E3,2.853146E3,1.6391066E3,1.4938201E3,3.189169E3,2.7586754E1,3.3629014E0],"tree_param":{"num_deleted":"0","num_feature":"26","num_nodes":"233","size_leaf_vector":"1"}},{"base_weights":[2.3331188E-2,-7.537931E-1,3.740987E-1,-1.1229999E0,-4.9164817E-1,6.095032E-1,1.6050592E-1,-1.4049708E0,-7.7459896E-1,-1.2822112E0,-3.9592254E-1,4.9139747E-1,7.48389E-1,-3.2023277E-2,2.3980808E-1,-1.7530088E0,-1.1261216E0,-1.533045E0,-4.0317154E-1,-1.788772E0,-8.104485E-1,-5.0415075E-1,-1.7831208E-1,5.3901666E-1,3.0674464E-1,7.9163724E-1,5.1803786E-1,-1.5316659E-1,2.0941366E-1,2.7555382E-1,8.917596E-2,-1.859986E0,-6.099902E-1,-1.3062862E0,-5.276735E-1,-1.7194854E0,-1.6512579E-1,-2.5421488E-1,-1.7567859E0,-1.1423585E0,-2.1709757E0,-4.9375287E-1,-1.4538211E0,-3.6671644E-1,-1.000195E0,1.9337945E-1,-6.2784016E-1,2.0975831E-1,5.799512E-1,5.0776625E-1,-9.000876E-3,8.232466E-1,5.8000326E-1,8.7975687E-1,3.95633E-1,1.2774369E-1,-2.9997784E-1,5.042095E-1,-1.2996969E-1,5.4613505E-2,3.075594E-1,-1.8622833E-1,3.2071164E-1,-1.9669217E0,-8.799615E-1,-1.7425038E0,8.3826107E-1,-1.4107263E0,-5.77149E-2,-1.3141986E0,-1.8325591E-1,-5.3510357E-2,-1.8914208E0,1.0800472E-1,-2.8490466E-3,-1.4390121E-1,-2.3986924E0,5.8238447E-1,-2.1168506E0,-1.7801787E-1,-1.9741082E0,-2.7926686E0,-1.3319323E0,-3.6059523E-1,-2.8899477E-3,-1.965072E0,-2.7807486E-1,-4.5238718E-1,9.3612045E-1,3.0842856E-2,-1.1802957E0,-1.8018593E-1,8.64647E-1,-1.1412374E0,-1.6634694E-1,-1.5538256E0,2.8782392E-1,6.6356933E-1,4.8640192E-1,-5.106133E-1,5.9073573E-1,9.8981607E-1,-2.3844428E-1,6.01217E-1,8.591695E-1,-2.7587034E-3,5.997574E-1,9.0371317E-1,-2.5139658E-3,4.1894278E-1,-2.805135E-3,-7.610848E-1,3.2362422E-1,-2.24882E0,-2.4215373E-1,9.108498E-2,8.6364275E-1,2.413413E-2,-1.2895272E0,1.9036412E-1,-8.008473E-1,2.9322642E-1,8.0422634E-1,-1.2816495E-1,-2.9060561E-3,9.3692636E-1,2.4511643E-1,-1.6822849E-3,-2.246916E-3,-1.8463838E-4,-2.9090915E-3,-3.9072186E-4,-2.9114047E-3,1.1024717E-3,-2.719266E-3,-1.6370376E-3,-1.0237815E-3,-2.841344E-3,1.8801184E-4,-2.093527E-3,-2.2300384E-4,-6.7733985E-5,-2.8685548E-3,-2.0880173E-3,1.0499384E-3,-2.347136E-3,-1.5748916E-3,3.7407098E-4,-2.830513E-3,-7.787159E-4,3.6816046E-4,1.0084137E-3,-2.6434711E-3,-2.6467617E-3,1.0344808E-3,-7.075157E-4,-2.4305074E-3,5.5445364E-4,-1.4264536E-3,-2.9177482E-3,-9.4373076E-4,-2.067333E-3,-2.9240658E-3,-2.5232905E-3,-3.6714532E-4,4.2195563E-5,-9.83672E-4,-6.8465405E-4,-2.4073902E-3,-2.8200054E-3,1.7402279E-4,-3.2847415E-4,-7.8548933E-4,-2.7830864E-3,1.0205344E-3,-2.3436622E-4,1.1716974E-3,-9.59149E-4,-1.5883337E-3,6.8624713E-4,-8.7767345E-4,-2.4049672E-4,1.1245422E-3,-2.4595236E-5,-1.3991235E-3,-8.305772E-4,1.4134735E-4,-1.955716E-4,-2.894232E-3,-2.7609465E-3,3.0823305E-4,6.2817207E-4,1.1167808E-3,3.9178628E-4,9.615317E-4,4.4111186E-4,-2.9102506E-3,3.236861E-4,8.6874625E-4,-2.5692875E-3,1.0555981E-3,-6.781293E-4,1.2112306E-4,6.138267E-4,-2.641475E-3,9.003482E-4,6.595799E-4,6.1119866E-4,-2.6308398E-3,-2.3163406E-3,9.1911905E-4,4.374857E-4,-2.7631205E-3,-2.1942707E-3,-5.192873E-4,4.489477E-4,-4.154391E-4,-2.9142979E-3,-1.6047406E-3,-2.8713087E-3,-2.2661146E-4,-3.902611E-4,7.681127E-4,9.555008E-4,-6.176047E-4,-1.5232151E-3,9.6890966E-5,-6.4207066E-4,-2.9099844E-3,3.6112932E-4,-3.0282402E-4,-5.0680403E-4,-2.1927021E-3,3.9600686E-4,2.3767022E-4,-2.6577103E-3,8.482674E-4,2.5397583E-4,-2.7895265E-4,-2.7378444E-3,1.0514806E-3,-5.2951404E-4,3.4895647E-4],"categories":[],"categories_nodes":[],"categories_segments":[],"categories_sizes":[],"default_left":[0,0,0,0,0,0,0,0,0,0,0,0,0,0,0,0,0,0,0,0,0,0,0,0,0,0,0,0,0,0,0,0,0,0,0,0,0,0,0,0,0,0,0,0,0,0,0,0,0,0,0,0,0,0,0,0,0,0,0,0,0,0,0,0,0,0,0,0,0,0,0,0,0,0,0,0,0,0,0,0,0,0,0,0,0,0,0,0,0,0,0,0,0,0,0,0,0,0,0,0,0,0,0,1,0,0,0,0,0,0,0,0,0,0,0,0,0,0,0,0,0,0,0,0,0,0,0,0,0,0,0,0,0,0,0,0,0,0,0,0,0,0,0,0,0,0,0,0,0,0,0,0,0,0,0,0,0,0,0,0,0,0,0,0,0,0,0,0,0,0,0,0,0,0,0,0,0,0,0,0,0,0,0,0,0,0,0,0,0,0,0,0,0,0,0,0,0,0,0,0,0,0,0,0,0,0,0,0,0,0,0,0,0,0,0,0,0,0,0,0,0,0,0,0,0,0,0,0,0,0,0,0,0,0,0,0,0,0,0,0,0,0,0],"id":4,"left_children":[1,3,5,7,9,11,13,15,17,19,21,23,25,27,29,31,33,35,37,39,41,43,45,47,49,51,53,55,57,59,61,63,65,67,69,71,73,75,77,79,81,83,85,87,89,91,93,95,97,99,101,103,105,107,109,111,113,115,117,119,121,123,125,127,129,131,133,135,137,139,141,143,145,147,-1,149,151,153,155,157,159,161,163,165,-1,167,169,171,173,175,177,179,181,183,185,187,189,191,193,195,197,199,201,203,205,-1,207,209,-1,211,-1,213,215,217,219,221,223,225,227,229,231,233,235,237,-1,239,241,-1,-1,-1,-1,-1,-1,-1,-1,-1,-1,-1,-1,-1,-1,-1,-1,-1,-1,-1,-1,-1,-1,-1,-1,-1,-1,-1,-1,-1,-1,-1,-1,-1,-1,-1,-1,-1,-1,-1,-1,-1,-1,-1,-1,-1,-1,-1,-1,-1,-1,-1,-1,-1,-1,-1,-1,-1,-1,-1,-1,-1,-1,-1,-1,-1,-1,-1,-1,-1,-1,-1,-1,-1,-1,-1,-1,-1,-1,-1,-1,-1,-1,-1,-1,-1,-1,-1,-1,-1,-1,-1,-1,-1,-1,-1,-1,-1,-1,-1,-1,-1,-1,-1,-1,-1,-1,-1,-1,-1,-1,-1,-1,-1,-1,-1,-1],"loss_changes":[7.183293E4,7.9302344E3,9.128824E3,3.3399453E3,3.6254941E3,1.4156094E3,1.4535847E3,1.8204492E3,4.286885E3,1.2333232E3,1.00646387E3,4.098252E2,3.9412305E2,8.122982E2,3.6283862E2,1.01935156E3,1.1241357E3,1.2747627E3,2.0593826E3,6.107705E2,5.446183E2,1.9452026E3,2.3738406E3,4.9958203E2,6.0809955E2,2.2208789E2,2.7689014E2,7.628912E2,9.285548E2,3.8512256E2,8.2508734E2,7.970488E2,1.1805046E3,1.0457246E3,6.5441486E2,1.2600928E3,4.4325394E2,2.1771465E3,8.556206E2,7.445908E2,8.0875146E2,5.713805E2,5.2927686E2,2.4961187E3,1.1505322E3,1.9505496E3,1.5225745E3,5.654841E2,2.5710938E2,4.9498035E2,8.538253E2,2.3030664E2,2.8822253E2,1.3150879E2,3.5092432E2,1.1053827E3,1.366939E3,7.3685974E2,7.71437E2,8.01066E2,3.379082E2,9.310306E2,3.2652905E2,5.414883E2,1.0631277E3,6.344946E2,3.0066885E2,6.446885E2,4.2721188E2,6.242572E2,5.2097797E2,9.325997E2,5.681631E2,4.286676E2,0E0,2.8488198E3,3.8036792E2,2.0197527E2,3.8404712E2,3.9734256E2,4.7918506E2,7.395361E1,7.6648145E2,4.291548E2,0E0,3.4450122E2,3.121879E2,8.6509814E2,4.3655408E2,2.7981744E2,4.7218262E2,3.0206248E3,7.996118E2,8.755691E2,6.930752E2,3.1449933E2,2.448677E2,2.775327E2,6.993872E2,1.01084186E3,4.008263E2,1.662334E2,4.7965765E2,1.6719824E2,2.0388672E2,0E0,1.6125049E2,8.066052E1,0E0,2.7581122E2,0E0,3.9419092E2,4.8223236E2,1.4058728E2,4.7966895E2,7.5438306E2,3.622948E2,4.2826172E2,5.2672217E2,5.017715E2,3.835719E2,2.6370752E2,2.0573596E2,3.3357132E2,0E0,3.263075E2,5.0407437E2,0E0,0E0,0E0,0E0,0E0,0E0,0E0,0E0,0E0,0E0,0E0,0E0,0E0,0E0,0E0,0E0,0E0,0E0,0E0,0E0,0E0,0E0,0E0,0E0,0E0,0E0,0E0,0E0,0E0,0E0,0E0,0E0,0E0,0E0,0E0,0E0,0E0,0E0,0E0,0E0,0E0,0E0,0E0,0E0,0E0,0E0,0E0,0E0,0E0,0E0,0E0,0E0,0E0,0E0,0E0,0E0,0E0,0E0,0E0,0E0,0E0,0E0,0E0,0E0,0E0,0E0,0E0,0E0,0E0,0E0,0E0,0E0,0E0,0E0,0E0,0E0,0E0,0E0,0E0,0E0,0E0,0E0,0E0,0E0,0E0,0E0,0E0,0E0,0E0,0E0,0E0,0E0,0E0,0E0,0E0,0E0,0E0,0E0,0E0,0E0,0E0,0E0,0E0,0E0,0E0,0E0,0E0,0E0,0E0,0E0,0E0,0E0,0E0,0E0,0E0,0E0],"parents":[2147483647,0,0,1,1,2,2,3,3,4,4,5,5,6,6,7,7,8,8,9,9,10,10,11,11,12,12,13,13,14,14,15,15,16,16,17,17,18,18,19,19,20,20,21,21,22,22,23,23,24,24,25,25,26,26,27,27,28,28,29,29,30,30,31,31,32,32,33,33,34,34,35,35,36,36,37,37,38,38,39,39,40,40,41,41,42,42,43,43,44,44,45,45,46,46,47,47,48,48,49,49,50,50,51,51,52,52,53,53,54,54,55,55,56,56,57,57,58,58,59,59,60,60,61,61,62,62,63,63,64,64,65,65,66,66,67,67,68,68,69,69,70,70,71,71,72,72,73,73,75,75,76,76,77,77,78,78,79,79,80,80,81,81,82,82,83,83,85,85,86,86,87,87,88,88,89,89,90,90,91,91,92,92,93,93,94,94,95,95,96,96,97,97,98,98,99,99,100,100,101,101,102,102,103,103,104,104,106,106,107,107,109,109,111,111,112,112,113,113,114,114,115,115,116,116,117,117,118,118,119,119,120,120,121,121,122,122,123,123,125,125,126,126],"right_children":[2,4,6,8,10,12,14,16,18,20,22,24,26,28,30,32,34,36,38,40,42,44,46,48,50,52,54,56,58,60,62,64,66,68,70,72,74,76,78,80,82,84,86,88,90,92,94,96,98,100,102,104,106,108,110,112,114,116,118,120,122,124,126,128,130,132,134,136,138,140,142,144,146,148,-1,150,152,154,156,158,160,162,164,166,-1,168,170,172,174,176,178,180,182,184,186,188,190,192,194,196,198,200,202,204,206,-1,208,210,-1,212,-1,214,216,218,220,222,224,226,228,230,232,234,236,238,-1,240,242,-1,-1,-1,-1,-1,-1,-1,-1,-1,-1,-1,-1,-1,-1,-1,-1,-1,-1,-1,-1,-1,-1,-1,-1,-1,-1,-1,-1,-1,-1,-1,-1,-1,-1,-1,-1,-1,-1,-1,-1,-1,-1,-1,-1,-1,-1,-1,-1,-1,-1,-1,-1,-1,-1,-1,-1,-1,-1,-1,-1,-1,-1,-1,-1,-1,-1,-1,-1,-1,-1,-1,-1,-1,-1,-1,-1,-1,-1,-1,-1,-1,-1,-1,-1,-1,-1,-1,-1,-1,-1,-1,-1,-1,-1,-1,-1,-1,-1,-1,-1,-1,-1,-1,-1,-1,-1,-1,-1,-1,-1,-1,-1,-1,-1,-1,-1],"split_conditions":[-3.9216515E-1,-7.2680974E-1,-2.0009625E0,6.002E3,1.115128E0,1.5316347E0,-1.6021718E-1,-8.534192E-1,2.8167202E0,-5.258198E-1,6.8368326E8,1.119E3,1.26E3,7.007256E8,1.237E3,2.201E3,3.2101822E0,9.721E3,1.271E3,9.959624E-1,9E0,4.7897136E8,8.0161485E8,2.4401378E8,4.297E3,-5.818366E0,-1.2636812E1,2.189E3,8.074835E8,2.4401378E8,1.766E3,9.240709E8,3.9717593E0,9.550403E8,3.850212E8,1.4950277E8,1.143E3,8.6358554E8,1.4950277E8,6E0,1.0341294E0,-4.0571353E-1,8.221669E8,4.7228896E8,1.3089433E0,7.820812E8,7.04E2,4E0,4.8618077E8,6.49E2,1.8687008E8,2.4713086E8,9.3E1,3.497E3,9.766398E8,3.617257E8,2.326E3,7.239E3,1.2285975E0,2.2567894E8,8.5374236E-1,1E0,1.5158048E8,1.5E1,9.646573E8,2.1923854E0,4E0,3.559E3,8E0,-7.9658383E-1,5.214763E0,1.535E3,-8.4149665E-1,9.955E3,-2.8490466E-3,4.6815574E8,6.086E3,1.728E3,6.907E3,3.598E3,6.7385594E8,1E0,-5.914616E-1,4.573E3,-2.8899477E-3,4E0,1.3E1,6.655E3,4.93E2,9.581E3,9.92E2,7.059153E8,6.79E2,1.96E2,-6.061616E-1,4E0,-9.431039E0,4.7228896E8,9.217E3,5.5434624E8,5.8556883E8,1.155E3,-3.1599073E0,1E0,7.8957965E8,-2.7587034E-3,1.226E3,1.8126955E0,-2.5139658E-3,9.721E3,-2.805135E-3,1.5900931E8,5.3002672E8,8E0,9.3E1,1.662E3,1.535E3,8.3007104E8,1.8E1,6.281E3,3.76132E-3,2.39E3,3.0663478E8,3.3550813E8,-2.9060561E-3,1.0298046E8,2.883171E8,-1.6822849E-3,-2.246916E-3,-1.8463838E-4,-2.9090915E-3,-3.9072186E-4,-2.9114047E-3,1.1024717E-3,-2.719266E-3,-1.6370376E-3,-1.0237815E-3,-2.841344E-3,1.8801184E-4,-2.093527E-3,-2.2300384E-4,-6.7733985E-5,-2.8685548E-3,-2.0880173E-3,1.0499384E-3,-2.347136E-3,-1.5748916E-3,3.7407098E-4,-2.830513E-3,-7.787159E-4,3.6816046E-4,1.0084137E-3,-2.6434711E-3,-2.6467617E-3,1.0344808E-3,-7.075157E-4,-2.4305074E-3,5.5445364E-4,-1.4264536E-3,-2.9177482E-3,-9.4373076E-4,-2.067333E-3,-2.9240658E-3,-2.5232905E-3,-3.6714532E-4,4.2195563E-5,-9.83672E-4,-6.8465405E-4,-2.4073902E-3,-2.8200054E-3,1.7402279E-4,-3.2847415E-4,-7.8548933E-4,-2.7830864E-3,1.0205344E-3,-2.3436622E-4,1.1716974E-3,-9.59149E-4,-1.5883337E-3,6.8624713E-4,-8.7767345E-4,-2.4049672E-4,1.1245422E-3,-2.4595236E-5,-1.3991235E-3,-8.305772E-4,1.4134735E-4,-1.955716E-4,-2.894232E-3,-2.7609465E-3,3.0823305E-4,6.2817207E-4,1.1167808E-3,3.9178628E-4,9.615317E-4,4.4111186E-4,-2.9102506E-3,3.236861E-4,8.6874625E-4,-2.5692875E-3,1.0555981E-3,-6.781293E-4,1.2112306E-4,6.138267E-4,-2.641475E-3,9.003482E-4,6.595799E-4,6.1119866E-4,-2.6308398E-3,-2.3163406E-3,9.1911905E-4,4.374857E-4,-2.7631205E-3,-2.1942707E-3,-5.192873E-4,4.489477E-4,-4.154391E-4,-2.9142979E-3,-1.6047406E-3,-2.8713087E-3,-2.2661146E-4,-3.902611E-4,7.681127E-4,9.555008E-4,-6.176047E-4,-1.5232151E-3,9.6890966E-5,-6.4207066E-4,-2.9099844E-3,3.6112932E-4,-3.0282402E-4,-5.0680403E-4,-2.1927021E-3,3.9600686E-4,2.3767022E-4,-2.6577103E-3,8.482674E-4,2.5397583E-4,-2.7895265E-4,-2.7378444E-3,1.0514806E-3,-5.2951404E-4,3.4895647E-4],"split_indices":[2,2,16,4,16,2,2,2,16,2,0,12,12,0,12,12,16,4,12,16,8,0,0,0,4,16,16,4,0,0,12,0,16,0,0,0,12,0,0,8,16,2,0,0,16,0,12,7,0,4,0,0,12,12,0,0,4,4,16,0,2,20,0,7,0,16,9,4,7,2,16,12,2,4,0,0,4,12,4,4,0,9,2,4,0,6,7,4,12,4,12,0,12,12,2,8,16,0,4,0,0,12,16,19,0,0,12,2,0,4,0,0,0,8,12,12,12,0,7,4,16,4,0,0,0,0,0,0,0,0,0,0,0,0,0,0,0,0,0,0,0,0,0,0,0,0,0,0,0,0,0,0,0,0,0,0,0,0,0,0,0,0,0,0,0,0,0,0,0,0,0,0,0,0,0,0,0,0,0,0,0,0,0,0,0,0,0,0,0,0,0,0,0,0,0,0,0,0,0,0,0,0,0,0,0,0,0,0,0,0,0,0,0,0,0,0,0,0,0,0,0,0,0,0,0,0,0,0,0,0,0,0,0,0,0,0,0,0,0,0,0,0,0],"split_type":[0,0,0,0,0,0,0,0,0,0,0,0,0,0,0,0,0,0,0,0,0,0,0,0,0,0,0,0,0,0,0,0,0,0,0,0,0,0,0,0,0,0,0,0,0,0,0,0,0,0,0,0,0,0,0,0,0,0,0,0,0,0,0,0,0,0,0,0,0,0,0,0,0,0,0,0,0,0,0,0,0,0,0,0,0,0,0,0,0,0,0,0,0,0,0,0,0,0,0,0,0,0,0,0,0,0,0,0,0,0,0,0,0,0,0,0,0,0,0,0,0,0,0,0,0,0,0,0,0,0,0,0,0,0,0,0,0,0,0,0,0,0,0,0,0,0,0,0,0,0,0,0,0,0,0,0,0,0,0,0,0,0,0,0,0,0,0,0,0,0,0,0,0,0,0,0,0,0,0,0,0,0,0,0,0,0,0,0,0,0,0,0,0,0,0,0,0,0,0,0,0,0,0,0,0,0,0,0,0,0,0,0,0,0,0,0,0,0,0,0,0,0,0,0,0,0,0,0,0,0,0,0,0,0,0,0,0,0,0,0,0,0,0],"sum_hessian":[2.6351772E5,8.195143E4,1.8156628E5,3.4024402E4,4.7927027E4,8.637057E4,9.519572E4,1.8801678E4,1.5222724E4,5.1738955E3,4.2753133E4,4.6682812E4,3.9687754E4,2.7770148E4,6.742557E4,8.358953E3,1.0442725E4,5.0022363E3,1.0220487E4,2.4924019E3,2.6814937E3,2.8549705E4,1.4203427E4,3.7107707E4,9.575107E3,3.3409348E4,6.2784062E3,1.8493482E4,9.276665E3,5.4490215E4,1.2935356E4,7.642317E3,7.1663635E2,8.0243594E3,2.4183652E3,4.401573E3,6.0066284E2,9.209222E3,1.0112653E3,9.2881195E2,1.5635898E3,1.7992523E3,8.822412E2,2.2358627E4,6.191078E3,7.7746846E3,6.428742E3,4.105601E3,3.3002105E4,5.8508154E3,3.7242915E3,2.9061992E4,4.347356E3,1.5840393E3,4.694367E3,6.3466055E3,1.2146878E4,4.96484E3,4.3118247E3,6.897209E3,4.7593004E4,5.9071377E3,7.0282183E3,6.8886396E3,7.536772E2,4.021785E2,3.1445786E2,7.4044023E3,6.1995685E2,7.347612E2,1.683604E3,4.1222067E2,3.9893525E3,5.463197E2,5.434315E1,8.760413E3,4.488089E2,1.3458907E2,8.766763E2,4.3124432E2,4.9756766E2,8.957738E2,6.6781604E2,1.7063634E3,9.2888985E1,6.138764E2,2.6836478E2,2.0980383E4,1.3782455E3,9.2040735E2,5.270671E3,4.995181E3,2.7795032E3,3.0416765E3,3.3870654E3,1.7255869E2,3.9330425E3,1.7418383E4,1.5583723E4,4.3973126E2,5.4110845E3,6.9437524E2,3.0299163E3,4.0528623E3,2.5009129E4,2.419845E1,4.3231577E3,1.574175E3,9.864215E0,4.6618765E3,3.2490494E1,1.1448497E3,5.201756E3,3.4813748E2,1.179874E4,2.3114185E3,2.6534216E3,3.8069263E3,5.048984E2,5.9541177E3,9.430912E2,4.6261375E4,1.3316315E3,5.785385E3,1.2175296E2,7.653946E2,6.2628237E3,3.4220981E3,3.4665417E3,5.627293E2,1.9094785E2,1.8762624E2,2.1455225E2,2.9381265E2,2.06452E1,4.668068E3,2.736335E3,4.916773E1,5.707891E2,4.2756177E2,3.0719946E2,1.6158154E3,6.7788574E1,1.4464433E2,2.6757632E2,1.6305739E3,2.3587788E3,5.0231693E2,4.4002766E1,3.9114695E3,4.8489434E3,2.9632193E1,4.191767E2,1.5498903E1,1.19090164E2,1.6077112E2,7.1590515E2,2.7205804E2,1.5918628E2,2.5802786E2,2.3953978E2,1.4181802E2,7.5395575E2,2.9750436E2,3.703117E2,1.0367485E3,6.6961487E2,1.5888625E2,4.5499017E2,3.9503716E1,2.2886107E2,1.5295121E4,5.6852607E3,2.9391756E1,1.3488538E3,7.4741327E2,1.7299405E2,3.4221824E3,1.8484884E3,2.2274746E3,2.7677068E3,5.288557E2,2.2506475E3,5.713449E2,2.4703318E3,1.0719932E3,2.3150725E3,8.674775E1,8.5810936E1,2.465122E1,3.908391E3,1.616085E4,1.2575338E3,1.2998947E4,2.5847754E3,3.1558307E2,1.2414817E2,2.7625222E3,2.648562E3,1.14271755E1,6.8294806E2,1.3631252E3,1.666791E3,4.038528E3,1.4334133E1,2.0725371E4,4.283759E3,4.309267E3,1.389041E1,6.274261E0,1.5679008E3,4.6363105E3,2.5566345E1,1.6322139E2,9.816283E2,4.448659E3,7.5309674E2,1.682423E2,1.7989519E2,6.752971E1,1.173121E4,1.3508804E3,9.60538E2,2.4993E3,1.541216E2,1.693125E2,3.6376138E3,3.6247412E2,1.4242427E2,4.4238022E3,1.5303153E3,7.805893E2,1.6250194E2,1.6225533E4,3.003584E4,1.5466717E1,1.3161648E3,1.635698E3,4.149687E3,2.1968098E1,7.4342645E2,7.390042E2,5.5238193E3],"tree_param":{"num_deleted":"0","num_feature":"26","num_nodes":"243","size_leaf_vector":"1"}},{"base_weights":[2.3506595E-2,4.1060433E-1,-6.1514527E-1,6.0943514E-1,1.7646192E-1,-3.8126928E-1,-8.783212E-1,7.432728E-1,5.128374E-1,-3.3012144E-2,2.3632127E-1,-7.209355E-1,-1.5348384E-1,-9.936445E-1,-3.514269E-1,6.4263976E-1,8.3767074E-1,-8.393315E-1,5.2182543E-1,-4.6730337E-1,1.3664947E-1,-6.667062E-2,2.965032E-1,-7.6015186E-1,7.513276E-1,-2.7244657E-1,5.3409046E-1,-1.2980587E0,-8.310057E-1,-8.612261E-1,1.8096332E-1,-2.6614836E-1,6.5632147E-1,9.3583626E-1,7.1259844E-1,-2.8660486E-3,-4.1765475E-1,4.862787E-1,8.912489E-1,-2.3290792E0,-3.841595E-1,5.535353E-1,8.033364E-4,-4.9587706E-1,2.2557895E-1,-6.8822384E-1,3.1272125E-1,-2.9111432E-3,-7.393752E-1,1.1326503E0,-2.843817E-3,-1.3800645E-1,-9.6835715E-1,-1.8441551E0,7.155395E-1,-1.1135614E0,-1.996063E0,1.472303E-1,-9.7242683E-1,2.9250437E-1,-1.278287E0,-1.481857E0,5.95209E-1,6.659195E-1,-2.8824685E-3,8.472513E-1,6.112325E-1,9.404639E-1,-2.605743E-3,4.9862084E-1,7.963471E-1,-2.8189647E-3,-5.4014776E-2,5.819882E-1,3.7016726E-1,7.247558E-1,1.2400026E0,-6.5016586E-1,-2.913865E-3,9.26243E-2,-5.6785274E-1,7.576632E-1,-9.287168E-2,8.020145E-2,-5.7244796E-1,-2.8976721E-3,-4.3415877E-1,-2.8838513E-3,2.6686984E-1,2.4608313E-1,-1.8990743E0,4.9609917E-1,2.3722492E-1,1.9210325E-1,-8.204693E-1,-2.70256E-3,1.2970693E0,-2.80921E-1,1.6938077E-1,-1.4668406E0,-3.3767757E-1,-2.4352822E0,-1.2180607E-1,8.473707E-1,-1.2075242E0,-1.3394794E0,-2.663211E-1,-5.6847155E-1,-2.1065493E0,-1.2212085E0,3.1735426E-1,-1.779762E0,-9.151296E-1,-1.1485919E0,1.0744894E0,-4.9835473E-1,-1.8351088E0,5.2440107E-2,-2.111297E0,9.7158134E-1,-1.5047691E0,-2.7730044E-3,1.211216E-3,-2.7410977E-3,8.71812E-4,4.77975E-4,7.913004E-4,2.1656615E-5,9.5079443E-4,7.646643E-4,-1.5911859E-5,7.3645805E-4,1.1678032E-3,-2.75755E-3,2.51229E-4,6.832576E-4,4.4090813E-4,3.8572535E-4,-1.2014156E-3,7.489757E-4,-2.7161692E-3,1.257578E-3,-2.2953425E-3,-2.6912596E-3,4.4425516E-4,3.2451228E-4,-1.4570617E-3,-1.0205167E-3,-1.8689474E-4,7.9082156E-4,-2.7176726E-3,1.0187809E-4,-2.8422768E-3,9.55852E-5,-2.8294574E-3,-3.0048596E-4,-2.1717008E-3,-3.3231443E-4,-1.5027884E-3,-1.584545E-4,4.8306704E-4,-2.8203388E-3,5.3148007E-4,-2.9166783E-3,-1.052916E-3,4.3709343E-4,7.9287397E-4,3.5861076E-4,9.182492E-5,-8.5133285E-4,9.471186E-4,-1.2867816E-3,-7.065084E-4,1.3905561E-3,-2.5195943E-3,-1.5499792E-4,-7.650166E-4,3.4756406E-4,-1.2708078E-3,-9.551469E-4,-2.754439E-3,-2.0192347E-4,-2.886465E-3,-2.917042E-3,1.4141428E-3,1.0395272E-3,-2.7588417E-3,9.766093E-4,3.950736E-5,3.6249025E-4,-2.208959E-3,-8.684644E-4,-1.9172222E-3,3.9400806E-4,-1.1665905E-3,-1.789039E-3,8.0147624E-4,-2.1768804E-3,2.8241525E-4,-5.021014E-4,-2.8878693E-3,-1.4431536E-4,4.7739755E-4,-1.2890061E-3,-2.686268E-3,-4.894327E-4,-1.0585415E-3,-2.86754E-3,-7.710987E-4,1.2128856E-3,-2.7497255E-3,-1.5654921E-3,-1.123183E-4,-2.0636006E-3,4.510435E-5,5.144183E-4,-2.789533E-3,-1.12846E-4,-2.44887E-3,1.0315544E-3,-2.8257468E-3,-3.1764692E-4,-2.4855582E-3],"categories":[],"categories_nodes":[],"categories_segments":[],"categories_sizes":[],"default_left":[0,0,0,0,0,0,0,0,0,0,0,0,0,0,0,0,0,0,0,0,0,0,0,0,0,0,0,0,0,0,0,0,0,0,0,0,0,0,0,0,0,0,0,0,0,0,0,0,0,0,0,0,0,0,0,0,0,0,0,0,0,0,0,0,0,0,0,0,0,0,0,0,0,0,0,0,0,0,0,0,0,0,0,0,0,0,0,0,0,0,0,0,0,0,0,0,0,0,0,0,0,0,0,0,0,0,0,0,0,0,0,0,0,0,0,0,0,0,0,0,0,0,0,0,0,0,0,0,0,0,0,0,0,0,0,0,0,0,0,0,0,0,0,0,0,0,0,0,0,0,0,0,0,0,0,0,0,0,0,0,0,0,0,0,0,0,0,0,0,0,0,0,0,0,0,0,0,0,0,0,0,0,0,0,0,0,0,0,0,0,0,0,0,0,0,0,0,0,0,0,0,0,0,0,0,0,0,0,0,0,0,0,0,0,0,0,0,0,0,0,0,0,0],"id":5,"left_children":[1,3,5,7,9,11,13,15,17,19,21,23,25,27,29,31,33,35,37,39,41,43,45,47,49,51,53,55,57,59,61,63,65,67,69,-1,71,73,75,77,79,81,83,85,87,89,91,-1,93,95,-1,97,99,101,103,105,107,109,111,113,115,117,119,121,-1,123,125,127,-1,129,131,-1,133,135,137,139,141,143,-1,145,147,149,151,153,155,-1,157,-1,159,161,163,165,167,169,171,-1,173,175,177,179,181,183,185,187,189,191,193,195,197,199,201,203,205,207,209,211,213,215,217,219,221,-1,-1,-1,-1,-1,-1,-1,-1,-1,-1,-1,-1,-1,-1,-1,-1,-1,-1,-1,-1,-1,-1,-1,-1,-1,-1,-1,-1,-1,-1,-1,-1,-1,-1,-1,-1,-1,-1,-1,-1,-1,-1,-1,-1,-1,-1,-1,-1,-1,-1,-1,-1,-1,-1,-1,-1,-1,-1,-1,-1,-1,-1,-1,-1,-1,-1,-1,-1,-1,-1,-1,-1,-1,-1,-1,-1,-1,-1,-1,-1,-1,-1,-1,-1,-1,-1,-1,-1,-1,-1,-1,-1,-1,-1,-1,-1,-1,-1,-1,-1,-1,-1],"loss_changes":[6.5142613E4,7.637254E3,6.11941E3,1.145793E3,9.4484595E2,4.0733042E3,2.8417148E3,3.516953E2,6.268242E2,1.2340446E3,1.0687041E3,1.2211309E3,2.5783394E3,1.8976719E3,2.2816855E3,2.2435498E2,2.3365625E2,2.8756604E2,6.7095703E2,7.2561816E2,6.8163477E2,1.2183567E3,7.809497E2,9.150215E2,7.563124E2,2.513439E3,2.0076519E3,1.7159102E3,3.4623555E3,2.0672878E3,2.833272E3,6.5655475E2,1.5122314E2,1.7883984E2,1.5004736E2,0E0,2.4617233E2,5.182529E2,2.5842627E2,1.923097E2,3.949563E2,3.9080438E2,4.132862E2,5.7971545E2,7.416059E2,8.9768665E2,6.6538184E2,0E0,1.5409893E3,3.1818073E2,0E0,9.89627E2,1.3659517E3,3.3404102E2,1.0967717E3,2.0223535E3,4.3710254E2,7.36121E2,1.00754297E3,1.2876681E3,1.3674492E3,7.9337146E2,2.6047842E3,3.76278E2,0E0,3.00823E2,3.4335547E2,1.01288086E2,0E0,3.2625336E2,1.3264526E2,0E0,2.0712027E2,3.647041E2,5.1645776E2,2.5577026E2,9.3784424E1,1.2347319E2,0E0,4.5067758E2,5.601998E2,2.6144714E2,3.8238577E2,3.5628247E2,4.7819153E2,0E0,4.1605438E2,0E0,5.247051E2,3.93369E2,2.908324E2,2.4445386E2,6.0118164E2,1.2884956E3,9.946045E2,0E0,1.7526355E2,9.3675E2,1.8346342E3,1.5944268E3,6.628849E2,4.6170972E2,2.6871924E2,4.2173584E2,4.3854977E2,2.2673115E3,1.3256099E3,3.418744E2,4.3698828E2,4.1507178E2,2.081413E2,6.363872E2,1.2449473E3,2.55633E2,3.9623853E2,5.412234E2,7.914756E2,3.1592505E2,3.9088086E2,6.397251E2,5.8063074E2,0E0,0E0,0E0,0E0,0E0,0E0,0E0,0E0,0E0,0E0,0E0,0E0,0E0,0E0,0E0,0E0,0E0,0E0,0E0,0E0,0E0,0E0,0E0,0E0,0E0,0E0,0E0,0E0,0E0,0E0,0E0,0E0,0E0,0E0,0E0,0E0,0E0,0E0,0E0,0E0,0E0,0E0,0E0,0E0,0E0,0E0,0E0,0E0,0E0,0E0,0E0,0E0,0E0,0E0,0E0,0E0,0E0,0E0,0E0,0E0,0E0,0E0,0E0,0E0,0E0,0E0,0E0,0E0,0E0,0E0,0E0,0E0,0E0,0E0,0E0,0E0,0E0,0E0,0E0,0E0,0E0,0E0,0E0,0E0,0E0,0E0,0E0,0E0,0E0,0E0,0E0,0E0,0E0,0E0,0E0,0E0,0E0,0E0,0E0,0E0,0E0,0E0],"parents":[2147483647,0,0,1,1,2,2,3,3,4,4,5,5,6,6,7,7,8,8,9,9,10,10,11,11,12,12,13,13,14,14,15,15,16,16,17,17,18,18,19,19,20,20,21,21,22,22,23,23,24,24,25,25,26,26,27,27,28,28,29,29,30,30,31,31,32,32,33,33,34,34,36,36,37,37,38,38,39,39,40,40,41,41,42,42,43,43,44,44,45,45,46,46,48,48,49,49,51,51,52,52,53,53,54,54,55,55,56,56,57,57,58,58,59,59,60,60,61,61,62,62,63,63,65,65,66,66,67,67,69,69,70,70,72,72,73,73,74,74,75,75,76,76,77,77,79,79,80,80,81,81,82,82,83,83,84,84,86,86,88,88,89,89,90,90,91,91,92,92,93,93,94,94,96,96,97,97,98,98,99,99,100,100,101,101,102,102,103,103,104,104,105,105,106,106,107,107,108,108,109,109,110,110,111,111,112,112,113,113,114,114,115,115,116,116,117,117,118,118,119,119,120,120],"right_children":[2,4,6,8,10,12,14,16,18,20,22,24,26,28,30,32,34,36,38,40,42,44,46,48,50,52,54,56,58,60,62,64,66,68,70,-1,72,74,76,78,80,82,84,86,88,90,92,-1,94,96,-1,98,100,102,104,106,108,110,112,114,116,118,120,122,-1,124,126,128,-1,130,132,-1,134,136,138,140,142,144,-1,146,148,150,152,154,156,-1,158,-1,160,162,164,166,168,170,172,-1,174,176,178,180,182,184,186,188,190,192,194,196,198,200,202,204,206,208,210,212,214,216,218,220,222,-1,-1,-1,-1,-1,-1,-1,-1,-1,-1,-1,-1,-1,-1,-1,-1,-1,-1,-1,-1,-1,-1,-1,-1,-1,-1,-1,-1,-1,-1,-1,-1,-1,-1,-1,-1,-1,-1,-1,-1,-1,-1,-1,-1,-1,-1,-1,-1,-1,-1,-1,-1,-1,-1,-1,-1,-1,-1,-1,-1,-1,-1,-1,-1,-1,-1,-1,-1,-1,-1,-1,-1,-1,-1,-1,-1,-1,-1,-1,-1,-1,-1,-1,-1,-1,-1,-1,-1,-1,-1,-1,-1,-1,-1,-1,-1,-1,-1,-1,-1,-1,-1],"split_conditions":[8.5355556E-1,-1.9336064E0,9.7961366E-1,-5.818366E0,3.15E2,-2.0670715E-1,3.632821E-1,6.01E2,1.1E2,5.4E1,-4.954349E-1,9.914E3,9.17E2,4.45E2,7.102E3,1.1E2,7.6E1,5E0,9.344E3,2E0,2.5350835E8,5.0152832E8,2.58E2,1.1836756E8,9.955E3,7.926406E-1,4.0299946E8,3.33E2,4.59E2,1.241E3,4.5417526E8,9E0,1.81E2,9.5843866E8,4.0672387E8,-2.8660486E-3,4.165E3,4.165E3,3.3687916E0,1E0,2.715265E8,4.808E3,1.1E1,8E0,-1.0512396E0,-7.438727E-1,2.1E1,-2.9111432E-3,1.5158048E8,-3.5913603E0,-2.843817E-3,3.632821E-1,7.4160045E8,8.304284E-1,9.85E2,7.820812E8,-3.3557707E-1,4.297E3,-8.389217E-1,6.95E2,2.0469081E0,6E0,7.8957965E8,-7.6726856E0,-2.8824685E-3,-6.672148E-1,3.632821E-1,-8.818576E-1,-2.605743E-3,-1.2136164E-1,7.796421E-1,-2.8189647E-3,-4.317252E0,4.8618077E8,9.8450464E8,1E0,9.581E3,1.2979868E-1,-2.913865E-3,4.121E3,5.9293203E8,1.807E3,2E1,3.1E2,3.299959E-1,-2.8976721E-3,8.664E3,-2.8838513E-3,6.4E2,-1.5490947E0,3.1632304E-1,7.735798E8,-2.2919936E-1,6.226E3,-2.086289E0,-2.70256E-3,-1.1901865E0,6.655E3,7.8957965E8,2.4985516E0,9.646573E8,7.253262E0,1.2108941E0,1.59E2,1.2868148E0,2.4107182E0,8.6358554E8,2.542707E0,4.6599746E-1,2.3437052E0,2.4766102E0,1.2348046E0,1.2486984E0,2E0,7.926406E-1,3.782E3,1.083E3,2.8167202E0,1.2679273E0,8.21E2,5.8788055E-1,-2.7730044E-3,1.211216E-3,-2.7410977E-3,8.71812E-4,4.77975E-4,7.913004E-4,2.1656615E-5,9.5079443E-4,7.646643E-4,-1.5911859E-5,7.3645805E-4,1.1678032E-3,-2.75755E-3,2.51229E-4,6.832576E-4,4.4090813E-4,3.8572535E-4,-1.2014156E-3,7.489757E-4,-2.7161692E-3,1.257578E-3,-2.2953425E-3,-2.6912596E-3,4.4425516E-4,3.2451228E-4,-1.4570617E-3,-1.0205167E-3,-1.8689474E-4,7.9082156E-4,-2.7176726E-3,1.0187809E-4,-2.8422768E-3,9.55852E-5,-2.8294574E-3,-3.0048596E-4,-2.1717008E-3,-3.3231443E-4,-1.5027884E-3,-1.584545E-4,4.8306704E-4,-2.8203388E-3,5.3148007E-4,-2.9166783E-3,-1.052916E-3,4.3709343E-4,7.9287397E-4,3.5861076E-4,9.182492E-5,-8.5133285E-4,9.471186E-4,-1.2867816E-3,-7.065084E-4,1.3905561E-3,-2.5195943E-3,-1.5499792E-4,-7.650166E-4,3.4756406E-4,-1.2708078E-3,-9.551469E-4,-2.754439E-3,-2.0192347E-4,-2.886465E-3,-2.917042E-3,1.4141428E-3,1.0395272E-3,-2.7588417E-3,9.766093E-4,3.950736E-5,3.6249025E-4,-2.208959E-3,-8.684644E-4,-1.9172222E-3,3.9400806E-4,-1.1665905E-3,-1.789039E-3,8.0147624E-4,-2.1768804E-3,2.8241525E-4,-5.021014E-4,-2.8878693E-3,-1.4431536E-4,4.7739755E-4,-1.2890061E-3,-2.686268E-3,-4.894327E-4,-1.0585415E-3,-2.86754E-3,-7.710987E-4,1.2128856E-3,-2.7497255E-3,-1.5654921E-3,-1.123183E-4,-2.0636006E-3,4.510435E-5,5.144183E-4,-2.789533E-3,-1.12846E-4,-2.44887E-3,1.0315544E-3,-2.8257468E-3,-3.1764692E-4,-2.4855582E-3],"split_indices":[16,16,14,16,3,11,1,3,3,13,1,4,3,3,4,3,13,8,4,6,0,0,4,0,4,1,0,3,3,4,0,6,3,0,0,0,4,4,1,9,0,4,8,13,14,16,13,0,0,14,0,1,0,14,3,0,11,4,1,4,16,13,0,16,0,11,1,1,0,11,11,0,16,0,0,23,4,11,0,4,0,13,6,3,14,0,4,0,3,16,16,0,16,4,14,0,14,4,0,16,0,16,16,13,16,16,0,16,11,16,16,14,14,9,1,4,13,16,16,13,11,0,0,0,0,0,0,0,0,0,0,0,0,0,0,0,0,0,0,0,0,0,0,0,0,0,0,0,0,0,0,0,0,0,0,0,0,0,0,0,0,0,0,0,0,0,0,0,0,0,0,0,0,0,0,0,0,0,0,0,0,0,0,0,0,0,0,0,0,0,0,0,0,0,0,0,0,0,0,0,0,0,0,0,0,0,0,0,0,0,0,0,0,0,0,0,0,0,0,0,0,0,0],"split_type":[0,0,0,0,0,0,0,0,0,0,0,0,0,0,0,0,0,0,0,0,0,0,0,0,0,0,0,0,0,0,0,0,0,0,0,0,0,0,0,0,0,0,0,0,0,0,0,0,0,0,0,0,0,0,0,0,0,0,0,0,0,0,0,0,0,0,0,0,0,0,0,0,0,0,0,0,0,0,0,0,0,0,0,0,0,0,0,0,0,0,0,0,0,0,0,0,0,0,0,0,0,0,0,0,0,0,0,0,0,0,0,0,0,0,0,0,0,0,0,0,0,0,0,0,0,0,0,0,0,0,0,0,0,0,0,0,0,0,0,0,0,0,0,0,0,0,0,0,0,0,0,0,0,0,0,0,0,0,0,0,0,0,0,0,0,0,0,0,0,0,0,0,0,0,0,0,0,0,0,0,0,0,0,0,0,0,0,0,0,0,0,0,0,0,0,0,0,0,0,0,0,0,0,0,0,0,0,0,0,0,0,0,0,0,0,0,0,0,0,0,0,0,0],"sum_hessian":[2.6349722E5,1.6405938E5,9.943785E4,8.871724E4,7.534213E4,5.265268E4,4.678517E4,3.7183605E4,5.153364E4,1.6743082E4,5.8599047E4,2.1133559E4,3.1519123E4,3.8382066E4,8.403105E3,1.8005666E4,1.917794E4,3.390064E2,5.1194633E4,4.7035327E3,1.2039549E4,9.709106E3,4.888994E4,2.0586271E4,5.472862E2,2.6871502E4,4.647621E3,1.3360818E4,2.502125E4,4.2926343E3,4.110471E3,2.6610046E2,1.7739564E4,1.0737035E4,8.440904E3,5.6683926E1,2.8232248E2,4.6705367E4,4.4892656E3,1.990833E2,4.504449E3,2.9569482E3,9.082601E3,3.9332637E3,5.775843E3,7.9064557E2,4.8099297E4,1.9471614E2,2.0391557E4,4.958589E2,5.1427273E1,2.252291E4,4.3485933E3,3.2828616E2,4.319335E3,1.0571228E4,2.7895913E3,3.1599182E3,2.1861332E4,1.1395383E3,3.153096E3,8.1877203E2,3.2916992E3,1.9688647E2,6.921398E1,3.381746E3,1.4357818E4,1.0724265E4,1.2770134E1,2.37899E3,6.0619146E3,3.561756E1,2.4670494E2,2.5596285E4,2.1109082E4,3.042733E3,1.4465326E3,5.246877E1,1.4661453E2,1.2522366E3,3.2522126E3,2.2476738E3,7.092743E2,7.979555E3,1.1030452E3,9.661015E1,3.8366536E3,7.418173E1,5.701661E3,4.4672745E2,3.4391812E2,1.4022986E4,3.407631E4,1.6324447E3,1.8759111E4,1.9307148E1,4.7655176E2,1.5375897E4,7.1470117E3,2.4272976E3,1.9212955E3,2.4372583E2,8.456032E1,4.0432578E3,2.7607718E2,8.34465E3,2.2265771E3,2.0137488E2,2.5882166E3,3.4805292E2,2.8118652E3,1.4451337E3,2.0416197E4,4.003686E2,7.391697E2,1.3149727E3,1.8381233E3,2.3835306E2,5.80419E2,2.79229E3,4.994091E2,2.5982485E1,1.7090399E2,2.1722952E1,3.3600232E3,8.256174E3,6.101645E3,1.19826096E2,1.0604438E4,1.5683197E3,8.106704E2,5.225275E3,8.366397E2,2.397208E1,2.2273285E2,1.4895074E4,1.0701212E4,2.0903594E4,2.0548758E2,3.0227751E3,1.9957792E1,1.4404792E3,6.053249E0,1.7709269E1,3.4759502E1,1.0905588E3,1.6167773E2,1.4844825E3,1.7677301E3,2.2277214E3,1.9952265E1,6.635363E2,4.573799E1,7.939202E3,4.035305E1,9.4451886E2,1.585263E2,3.5050442E3,3.3160934E2,1.9208545E3,3.7808066E3,3.6753838E1,4.0997363E2,1.5420605E2,1.8971208E2,1.170179E4,2.3211958E3,1.8568736E4,1.5507572E4,6.84965E2,9.474797E2,3.680243E3,1.5078868E4,4.6621655E2,1.0335188E1,1.2204318E4,3.171579E3,6.3614453E3,7.855668E2,1.7391553E3,6.881422E2,1.8258611E3,9.543444E1,2.1705446E2,2.6671381E1,5.920563E1,2.5354685E1,3.484836E3,5.584218E2,1.0769479E2,1.6838237E2,4.599469E3,3.7451807E3,1.2846216E3,9.419555E2,1.06443855E2,9.493102E1,2.5145315E3,7.368513E1,2.4471756E2,1.0333536E2,7.2307275E2,2.0887925E3,9.402785E2,5.0485513E2,5.1473E3,1.5268897E4,7.0071785E1,3.302968E2,7.1446844E2,2.4701195E1,3.4776172E2,9.6721094E2,1.6390575E3,1.9906583E2,2.0623317E2,3.21199E1,8.437817E1,4.9604083E2,2.750081E3,4.2209137E1,2.2706769E2,2.723414E2],"tree_param":{"num_deleted":"0","num_feature":"26","num_nodes":"223","size_leaf_vector":"1"}},{"base_weights":[3.1825934E-2,-8.2586324E-1,3.5745475E-1,-1.3756137E0,-6.717818E-1,1.0867154E-1,5.966909E-1,-1.5733604E0,-7.193038E-1,-7.055862E-1,6.0094583E-1,-6.784566E-2,2.1731675E-1,4.8043025E-1,7.602237E-1,-1.0402548E0,-1.7149299E0,-1.6435375E0,-3.6727232E-1,-9.333113E-1,-5.634936E-1,-2.8813265E-3,8.3265156E-1,-1.0073357E-1,8.0800587E-1,-3.0847862E-1,2.3325507E-1,6.7425877E-1,4.382319E-1,8.082607E-1,5.0568396E-1,-5.933755E-1,-2.701107E0,-1.2891521E0,-1.9851544E0,-5.6956476E-1,-2.6891253E0,4.8356008E-2,-1.7637358E0,-5.350305E-1,-1.0681883E0,-7.3560756E-1,-4.179736E-1,1.0717722E0,-1.848581E0,1.527424E-1,-1.9697887E-1,-6.79642E-1,1.0158875E0,-2.8744747E-3,-1.9940996E-1,1.9493282E-1,3.730017E-1,6.923607E-1,-2.8580506E-3,3.7954313E-1,5.614141E-1,7.8857577E-1,1.0518126E0,5.3299654E-1,-1.5143319E0,-2.258426E0,-2.3278768E-1,-2.918084E-3,-5.077825E-1,-1.5939517E0,-5.4294574E-1,-2.7098396E0,-1.8178248E0,9.9609035E-1,-1.2391816E0,-2.919121E-3,-4.736588E-1,-2.3448951E0,3.2147843E-1,-2.3658166E0,-3.6012635E-1,-6.3888985E-1,6.992055E-2,-2.9090387E-3,-1.0431482E0,-5.4193276E-1,-1.0361917E0,-5.2139354E-1,-6.715007E-2,1.1394604E0,-2.731671E-3,-2.877418E-3,1.0646371E0,2.607934E-1,-8.172658E-1,-1.0485762E0,-1.7272069E-1,4.9618417E-1,-2.854784E-3,1.0743259E0,-2.6671714E-3,-1.1437033E0,3.8948167E-2,2.8473574E-1,5.622326E-3,9.373821E-1,1.9093014E-1,7.361874E-1,-3.4581384E-1,3.926216E-1,-2.0636743E-1,5.228509E-1,8.632508E-1,9.577269E-1,7.594129E-1,1.0768886E0,-2.6670669E-3,4.552081E-1,9.4690776E-1,-2.8646453E-3,1.3462728E-3,-2.9109952E-3,-1.3734121E-4,-2.8589894E-3,-1.169122E-4,-2.6861483E-3,8.752972E-4,-2.096611E-3,-8.695044E-4,-2.329663E-3,-1.297096E-4,-2.8105846E-3,-9.110828E-4,-2.1450429E-3,-1.3861122E-3,-2.5975371E-3,1.3712946E-3,-2.8792475E-3,-5.9255835E-4,1.2228261E-3,-2.7052762E-3,-2.9017807E-3,1.0101126E-3,-2.8734643E-3,4.563784E-4,-3.6241996E-4,-2.9153528E-3,1.2722646E-3,-2.862911E-3,-1.5681362E-3,-3.6525415E-4,1.2638606E-3,-7.021127E-4,-8.851902E-4,-1.3006026E-3,-5.1286194E-4,-2.8950812E-3,-9.491693E-4,-2.3145073E-3,-4.467797E-4,-2.0420423E-3,9.5191586E-4,-6.9987134E-4,1.1667004E-3,-2.435219E-3,-1.6291881E-3,1.380967E-3,3.243112E-4,-9.62663E-4,-1.5543913E-3,4.5298753E-4,2.2375897E-4,-1.4013982E-3,-2.6544064E-4,-2.8553297E-5,-2.6564656E-3,1.1015378E-3,-2.5365856E-3,1.1123696E-3,5.6468316E-6,-2.9100487E-3,-2.7617838E-3,9.698383E-5,2.2753443E-4,1.156239E-3,2.8320006E-4,-2.0144861E-4,-2.5603378E-3,9.520969E-4,-2.8146124E-3,2.0296707E-4,6.211008E-4,8.876831E-4,5.615687E-5,-2.8645236E-3,2.7263165E-4,4.5973124E-4,-2.8405462E-3,-2.2638205E-5,5.534754E-4,1.10573375E-4,9.106582E-4,-2.733666E-3,9.6451695E-4,-2.439415E-3,8.3415495E-4,7.1170996E-4,-2.3546154E-3,1.0875831E-3,-4.6255076E-4,4.9820176E-4,1.0112276E-3,-2.6776937E-3],"categories":[],"categories_nodes":[],"categories_segments":[],"categories_sizes":[],"default_left":[0,0,0,0,0,0,0,0,0,0,0,0,0,0,0,0,0,0,0,0,0,0,0,0,0,0,0,0,0,0,0,0,0,0,0,0,0,0,0,0,0,0,0,0,0,0,0,0,0,0,0,0,0,0,0,0,0,0,0,0,0,0,0,0,0,0,0,0,0,0,0,0,0,0,0,0,0,0,0,0,0,0,0,0,0,0,0,0,0,0,0,0,0,0,0,0,0,0,0,0,0,0,0,0,0,0,0,0,0,0,0,0,0,0,0,0,0,0,0,0,0,0,0,0,0,0,0,0,0,0,0,0,0,0,0,0,0,0,0,0,0,0,0,0,0,0,0,0,0,0,0,0,0,0,0,0,0,0,0,0,0,0,0,0,0,0,0,0,0,0,0,0,0,0,0,0,0,0,0,0,0,0,0,0,0,0,0,0,0,0,0,0,0,0,0,0,0,0,0,0,0,0,0,0,0,0,0,0,0],"id":6,"left_children":[1,3,5,7,9,11,13,15,17,19,21,23,25,27,29,31,33,35,37,39,41,-1,43,45,47,49,51,53,55,57,59,61,63,65,67,69,71,73,75,77,79,81,83,85,87,89,91,93,95,-1,97,99,101,103,-1,105,107,109,111,113,115,117,119,-1,121,123,125,127,129,131,133,-1,135,137,139,141,143,145,147,-1,149,151,153,155,157,159,-1,-1,161,163,165,167,169,171,-1,173,-1,175,177,179,181,183,185,187,189,191,193,195,197,199,201,203,-1,205,207,-1,-1,-1,-1,-1,-1,-1,-1,-1,-1,-1,-1,-1,-1,-1,-1,-1,-1,-1,-1,-1,-1,-1,-1,-1,-1,-1,-1,-1,-1,-1,-1,-1,-1,-1,-1,-1,-1,-1,-1,-1,-1,-1,-1,-1,-1,-1,-1,-1,-1,-1,-1,-1,-1,-1,-1,-1,-1,-1,-1,-1,-1,-1,-1,-1,-1,-1,-1,-1,-1,-1,-1,-1,-1,-1,-1,-1,-1,-1,-1,-1,-1,-1,-1,-1,-1,-1,-1,-1,-1,-1,-1,-1,-1],"loss_changes":[7.407727E4,6.1801523E3,1.1441781E4,2.0706094E3,2.453623E3,1.8075349E3,1.8621133E3,9.2238477E2,1.2027219E3,1.7956055E3,1.193146E3,1.0340614E3,4.8898755E2,4.6756055E2,4.9660352E2,1.9110691E3,1.1101562E3,1.1419434E3,1.5585399E3,1.1444824E3,8.5566113E2,0E0,8.904312E2,8.4438855E2,4.0295898E2,4.7791016E2,3.0286572E2,6.5646436E2,3.3935938E2,1.6203906E2,3.5768652E2,1.2200188E3,2.5610547E2,8.55022E2,7.092207E2,5.3195404E2,2.5936353E2,1.3526652E3,5.177832E2,3.397235E2,7.2804297E2,9.104336E2,6.723042E2,3.3148376E2,3.4648892E2,9.9826166E2,5.173624E2,4.1221628E2,2.490227E2,0E0,3.7155237E2,7.554617E2,1.2509792E3,4.6405078E2,0E0,2.4446875E2,1.7528955E2,1.5440625E2,2.4176099E2,2.042373E2,3.4051828E2,4.9881262E2,5.0773416E2,0E0,1.5872768E2,9.699546E2,8.075226E2,1.9516699E2,6.748584E2,2.0973946E2,3.7215637E2,0E0,1.9713008E2,4.0133667E2,8.018844E2,4.7066748E2,7.697632E2,1.1705966E3,7.317397E2,0E0,6.366543E2,6.481394E2,6.777051E2,1.6218315E3,2.72431E3,1.2548804E2,0E0,0E0,2.9377441E1,6.662195E2,8.953119E2,3.1257715E2,3.259234E2,2.0382808E2,0E0,1.5794165E2,0E0,6.7674585E2,2.1311902E2,1.5016235E3,8.22268E2,1.5573169E2,3.3286517E2,1.6884082E2,4.199445E2,2.5052686E2,3.353772E2,1.6955835E2,2.9537134E2,1.101167E2,9.476465E1,9.63811E1,0E0,2.1260217E2,2.3816711E2,0E0,0E0,0E0,0E0,0E0,0E0,0E0,0E0,0E0,0E0,0E0,0E0,0E0,0E0,0E0,0E0,0E0,0E0,0E0,0E0,0E0,0E0,0E0,0E0,0E0,0E0,0E0,0E0,0E0,0E0,0E0,0E0,0E0,0E0,0E0,0E0,0E0,0E0,0E0,0E0,0E0,0E0,0E0,0E0,0E0,0E0,0E0,0E0,0E0,0E0,0E0,0E0,0E0,0E0,0E0,0E0,0E0,0E0,0E0,0E0,0E0,0E0,0E0,0E0,0E0,0E0,0E0,0E0,0E0,0E0,0E0,0E0,0E0,0E0,0E0,0E0,0E0,0E0,0E0,0E0,0E0,0E0,0E0,0E0,0E0,0E0,0E0,0E0,0E0,0E0,0E0,0E0,0E0,0E0],"parents":[2147483647,0,0,1,1,2,2,3,3,4,4,5,5,6,6,7,7,8,8,9,9,10,10,11,11,12,12,13,13,14,14,15,15,16,16,17,17,18,18,19,19,20,20,22,22,23,23,24,24,25,25,26,26,27,27,28,28,29,29,30,30,31,31,32,32,33,33,34,34,35,35,36,36,37,37,38,38,39,39,40,40,41,41,42,42,43,43,44,44,45,45,46,46,47,47,48,48,50,50,51,51,52,52,53,53,55,55,56,56,57,57,58,58,59,59,60,60,61,61,62,62,64,64,65,65,66,66,67,67,68,68,69,69,70,70,72,72,73,73,74,74,75,75,76,76,77,77,78,78,80,80,81,81,82,82,83,83,84,84,85,85,88,88,89,89,90,90,91,91,92,92,93,93,95,95,97,97,98,98,99,99,100,100,101,101,102,102,103,103,104,104,105,105,106,106,107,107,108,108,109,109,110,110,111,111,113,113,114,114],"right_children":[2,4,6,8,10,12,14,16,18,20,22,24,26,28,30,32,34,36,38,40,42,-1,44,46,48,50,52,54,56,58,60,62,64,66,68,70,72,74,76,78,80,82,84,86,88,90,92,94,96,-1,98,100,102,104,-1,106,108,110,112,114,116,118,120,-1,122,124,126,128,130,132,134,-1,136,138,140,142,144,146,148,-1,150,152,154,156,158,160,-1,-1,162,164,166,168,170,172,-1,174,-1,176,178,180,182,184,186,188,190,192,194,196,198,200,202,204,-1,206,208,-1,-1,-1,-1,-1,-1,-1,-1,-1,-1,-1,-1,-1,-1,-1,-1,-1,-1,-1,-1,-1,-1,-1,-1,-1,-1,-1,-1,-1,-1,-1,-1,-1,-1,-1,-1,-1,-1,-1,-1,-1,-1,-1,-1,-1,-1,-1,-1,-1,-1,-1,-1,-1,-1,-1,-1,-1,-1,-1,-1,-1,-1,-1,-1,-1,-1,-1,-1,-1,-1,-1,-1,-1,-1,-1,-1,-1,-1,-1,-1,-1,-1,-1,-1,-1,-1,-1,-1,-1,-1,-1,-1,-1,-1],"split_conditions":[-4.576715E-1,-8.496934E-1,4.485108E-1,2.03212E-1,1.4025139E0,-1.6827846E-1,1.5316347E0,2.4713086E8,4.7228896E8,-6.9930655E-1,5.9293203E8,1.3086932E0,-8.818576E-1,9E0,1.249E3,4.48E2,-9.1249007E-1,3.632821E-1,7.8957965E8,-7.855733E-1,-1.3197862E-1,-2.8813265E-3,7.059153E8,2E1,6.9030714E8,2.2E1,7.820812E8,6.625559E0,1.0715885E-1,3.3687916E0,9.5843866E8,4.4E2,2.678E3,3.632821E-1,4.1E1,1.3949638E8,2.347E3,3.632821E-1,1.012E3,1.808E3,1.2825832E8,8E0,7.820812E8,2.7E1,-4.700005E-1,1.169E3,1.3357314E8,2.2567894E8,9.529298E8,-2.8744747E-3,4.14E2,4.7897136E8,8.0161485E8,1.385E3,-2.8580506E-3,1E0,3.3687916E0,5E0,9.766398E8,3.9364016E0,3.1E1,7.610314E-2,1.2825832E8,-2.918084E-3,1.9909385E0,4.63E2,4.6005408E8,2.397E3,-1.9235966E-1,1.8332282E0,7E0,-2.919121E-3,-1.0632888E1,5.663198E-1,3.41E2,-6.60764E-2,1.052E3,3.9588214E8,1.4950277E8,-2.9090387E-3,8.35E2,6.1187663E0,-1.637741E-1,7.24519E8,8.0161485E8,6.13E2,-2.731671E-3,-2.877418E-3,6E0,7.943983E8,7.224065E8,1.0298046E8,6.634368E8,-2.702299E-1,-2.854784E-3,1.78E2,-2.6671714E-3,2.25E2,3E0,4.7228896E8,5.83E2,2.25E2,-5.3689113E0,1.0131389E0,7.610314E-2,7.595135E-1,3.7E1,9.35738E-1,1.333E3,8.973551E8,5E0,2E0,-2.6670669E-3,-1.2009581E1,3.3141792E-1,-2.8646453E-3,1.3462728E-3,-2.9109952E-3,-1.3734121E-4,-2.8589894E-3,-1.169122E-4,-2.6861483E-3,8.752972E-4,-2.096611E-3,-8.695044E-4,-2.329663E-3,-1.297096E-4,-2.8105846E-3,-9.110828E-4,-2.1450429E-3,-1.3861122E-3,-2.5975371E-3,1.3712946E-3,-2.8792475E-3,-5.9255835E-4,1.2228261E-3,-2.7052762E-3,-2.9017807E-3,1.0101126E-3,-2.8734643E-3,4.563784E-4,-3.6241996E-4,-2.9153528E-3,1.2722646E-3,-2.862911E-3,-1.5681362E-3,-3.6525415E-4,1.2638606E-3,-7.021127E-4,-8.851902E-4,-1.3006026E-3,-5.1286194E-4,-2.8950812E-3,-9.491693E-4,-2.3145073E-3,-4.467797E-4,-2.0420423E-3,9.5191586E-4,-6.9987134E-4,1.1667004E-3,-2.435219E-3,-1.6291881E-3,1.380967E-3,3.243112E-4,-9.62663E-4,-1.5543913E-3,4.5298753E-4,2.2375897E-4,-1.4013982E-3,-2.6544064E-4,-2.8553297E-5,-2.6564656E-3,1.1015378E-3,-2.5365856E-3,1.1123696E-3,5.6468316E-6,-2.9100487E-3,-2.7617838E-3,9.698383E-5,2.2753443E-4,1.156239E-3,2.8320006E-4,-2.0144861E-4,-2.5603378E-3,9.520969E-4,-2.8146124E-3,2.0296707E-4,6.211008E-4,8.876831E-4,5.615687E-5,-2.8645236E-3,2.7263165E-4,4.5973124E-4,-2.8405462E-3,-2.2638205E-5,5.534754E-4,1.10573375E-4,9.106582E-4,-2.733666E-3,9.6451695E-4,-2.439415E-3,8.3415495E-4,7.1170996E-4,-2.3546154E-3,1.0875831E-3,-4.6255076E-4,4.9820176E-4,1.0112276E-3,-2.6776937E-3],"split_indices":[2,2,2,11,11,2,2,0,0,2,0,11,1,13,12,13,2,1,0,14,11,0,0,13,0,13,0,14,11,1,0,12,12,1,13,0,12,1,12,12,0,8,0,7,2,12,0,0,0,0,12,0,0,12,0,21,1,13,0,2,7,11,0,0,14,13,0,12,11,14,8,0,14,11,12,1,12,0,0,0,12,14,11,0,0,12,0,0,9,0,0,0,0,2,0,12,0,12,7,0,12,12,14,2,11,2,13,11,12,0,8,7,0,14,11,0,0,0,0,0,0,0,0,0,0,0,0,0,0,0,0,0,0,0,0,0,0,0,0,0,0,0,0,0,0,0,0,0,0,0,0,0,0,0,0,0,0,0,0,0,0,0,0,0,0,0,0,0,0,0,0,0,0,0,0,0,0,0,0,0,0,0,0,0,0,0,0,0,0,0,0,0,0,0,0,0,0,0,0,0,0,0,0,0,0,0,0,0,0],"split_type":[0,0,0,0,0,0,0,0,0,0,0,0,0,0,0,0,0,0,0,0,0,0,0,0,0,0,0,0,0,0,0,0,0,0,0,0,0,0,0,0,0,0,0,0,0,0,0,0,0,0,0,0,0,0,0,0,0,0,0,0,0,0,0,0,0,0,0,0,0,0,0,0,0,0,0,0,0,0,0,0,0,0,0,0,0,0,0,0,0,0,0,0,0,0,0,0,0,0,0,0,0,0,0,0,0,0,0,0,0,0,0,0,0,0,0,0,0,0,0,0,0,0,0,0,0,0,0,0,0,0,0,0,0,0,0,0,0,0,0,0,0,0,0,0,0,0,0,0,0,0,0,0,0,0,0,0,0,0,0,0,0,0,0,0,0,0,0,0,0,0,0,0,0,0,0,0,0,0,0,0,0,0,0,0,0,0,0,0,0,0,0,0,0,0,0,0,0,0,0,0,0,0,0,0,0,0,0,0,0],"sum_hessian":[2.6523362E5,7.2986695E4,1.9224694E5,1.5974783E4,5.701191E4,9.424512E4,9.800183E4,1.2273814E4,3.7009688E3,5.553785E4,1.4740571E3,3.59053E4,5.8339816E4,5.728503E4,4.0716793E4,2.578828E3,9.694986E3,1.0189263E3,2.6820425E3,2.1334379E4,3.4203473E4,9.075795E1,1.3832992E3,3.460769E4,1.2976082E3,1.7146799E3,5.6625137E4,1.0235637E4,4.7049395E4,3.4248215E4,6.4685806E3,2.0339086E3,5.449193E2,3.768179E3,5.9268076E3,5.0401935E2,5.149069E2,2.067719E3,6.1432355E2,5.3999453E3,1.5934435E4,1.5665528E4,1.8537943E4,1.2710315E3,1.1226768E2,9.522562E3,2.5085129E4,1.5838194E2,1.1392263E3,6.817396E1,1.646506E3,4.4444453E4,1.2180681E4,1.0184791E4,5.084621E1,3.1873713E4,1.5175683E4,3.1694902E4,2.553311E3,6.3836196E3,8.496107E1,3.6040787E2,1.6735007E3,4.9520688E2,4.971241E1,2.6736934E3,1.0944856E3,1.1069502E3,4.8198574E3,1.505455E2,3.5347385E2,4.658439E2,4.906301E1,2.104479E2,1.8572711E3,4.289431E2,1.8538045E2,4.6093447E3,7.9060065E2,2.112528E2,1.5723182E4,9.530578E3,6.1349507E3,1.4315651E4,4.222293E3,1.2499685E3,2.1063065E1,8.31074E1,2.9160282E1,8.569592E3,9.529703E2,6.924465E2,2.4392682E4,